<?xml version="1.0"?>
<opencv_storage>
<opencv_ml_svm>
  <format>3</format>
  <svmType>C_SVC</svmType>
  <kernel>
    <type>LINEAR</type></kernel>
  <C>1.</C>
  <term_criteria><iterations>100</iterations></term_criteria>
  <var_count>720</var_count>
  <class_count>3</class_count>
  <class_labels type_id="opencv-matrix">
    <rows>3</rows>
    <cols>1</cols>
    <dt>i</dt>
    <data>
      -1 1 2</data></class_labels>
  <sv_total>3</sv_total>
  <support_vectors>
    <_>
      -5.81613043e-04 -6.57889002e-04 1.23484235e-04 7.65408389e-04
      7.62863783e-05 -4.05074126e-04 -5.25997493e-05 -1.15735464e-04 0.
      7.58102571e-04 0. 5.26798249e-06 0. -2.00075752e-04 4.73278633e-05
      -1.35594688e-04 5.88700816e-04 -4.70855879e-03 6.58759731e-04
      1.11057831e-03 1.09090446e-03 4.36186470e-04 1.39776443e-03
      2.05145971e-05 1.21906496e-05 6.39088466e-05 3.72681854e-04
      7.83064985e-04 1.02572985e-05 6.08348637e-04 4.44482939e-05
      8.49599091e-05 6.88016007e-04 1.97089597e-04 7.45019992e-04
      8.42082547e-04 -1.62604242e-03 6.62289793e-04 1.04104809e-03
      4.16243391e-04 1.07153575e-03 -1.51902801e-04 -4.01040088e-05
      -1.59136267e-04 -1.73603199e-04 1.12829776e-03 -3.32032476e-04
      2.53678503e-04 7.37468770e-04 -1.47769169e-04 2.05160439e-04
      3.10679839e-04 1.61955802e-04 -2.44441349e-03 -1.89251825e-03
      2.28096222e-04 1.09587191e-03 3.38713202e-04 1.06228283e-04
      2.49594275e-04 1.50440377e-04 6.15437893e-05 0. 1.46246725e-03
      1.02572987e-04 2.39336969e-05 1.13389127e-04 1.57317947e-04
      2.11984181e-04 1.79315306e-04 9.88589716e-04 1.09187292e-03
      1.16556906e-03 3.00188141e-04 6.33694988e-04 -2.02011928e-04
      1.58000144e-03 0. 4.14299604e-04 1.48381505e-05 0. 7.32937653e-04
      0. -9.50017493e-05 -4.47449042e-04 1.46205886e-03 -1.82178075e-04
      7.92949686e-06 -2.56701052e-04 -2.52084667e-03 2.08801893e-03
      2.59075692e-04 1.06261449e-03 1.03780709e-03 1.00825028e-03
      2.90287309e-04 1.06270367e-04 2.31240956e-05 3.41909945e-05
      1.03188620e-03 1.66126309e-04 1.23367005e-04 1.49323561e-04
      7.17435847e-04 1.55722984e-04 3.31378629e-04 3.80203128e-04
      1.51767547e-03 6.03259075e-04 1.55536027e-03 8.99590901e-04
      1.89572296e-04 1.41304801e-03 -3.12346747e-05 5.26798249e-06
      -2.89981035e-05 7.18010924e-05 1.69827708e-03 -3.34543074e-05
      -1.24493882e-03 -6.84532512e-04 -1.86385456e-04 9.25829867e-04
      6.17181533e-04 -2.59815319e-03 5.47055934e-05 -2.42125569e-03
      3.78360943e-04 2.63468610e-05 6.33246382e-04 1.34661701e-03
      2.91263277e-04 1.79077892e-04 1.67674298e-04 6.37992925e-04
      9.35033720e-04 8.01624905e-04 2.50990270e-04 2.31727943e-04
      4.26060200e-04 1.29257416e-04 7.39275565e-05 1.10915869e-04
      1.74934146e-04 -6.47248526e-04 6.24590495e-04 2.63659866e-03
      -2.42786573e-05 1.90868624e-03 1.98547321e-04 -3.58146099e-06
      8.38619089e-05 1.98608686e-05 5.39277156e-04 3.22615582e-04
      -3.08337912e-04 1.46042628e-04 1.18512216e-04 2.48934783e-04
      -5.99505613e-04 2.02533789e-04 -3.63792751e-05 -1.73326218e-04
      -1.90639461e-04 -9.02747968e-04 -7.28891697e-04 7.88595004e-04
      7.92934225e-05 1.00935358e-04 2.16948793e-05 2.45748961e-05
      1.56722113e-03 1.18964852e-03 3.42898711e-05 3.02904537e-05
      7.96111563e-05 5.31503501e-05 4.79192931e-05 3.43220367e-04
      -6.98508302e-05 1.29281529e-04 1.37121999e-04 9.38069599e-04
      2.91002798e-04 3.27208126e-03 2.59456487e-04 9.48881643e-05
      -2.01486364e-05 1.83511511e-05 7.96215143e-04 -8.27241020e-05
      -5.84222958e-04 1.85462977e-05 -2.73678801e-04 1.41766013e-05
      -2.40885332e-04 1.23057456e-03 1.08835578e-03 -2.81227962e-03
      -5.67409501e-04 -4.63517863e-05 2.12751867e-04 1.82599341e-03
      5.03377873e-04 9.17334750e-04 8.10062978e-04 9.83086065e-05
      2.55234237e-03 2.04578377e-04 4.07065352e-04 2.06306373e-04
      1.73685781e-04 5.66954768e-05 1.39572861e-04 3.90756439e-04
      1.93425236e-04 -3.73575691e-04 -1.87482874e-05 5.05541830e-05
      3.81138693e-06 2.06352537e-03 9.63724306e-05 8.46436160e-05
      1.27384803e-04 -4.93531872e-04 1.36099604e-03 -5.04641328e-04
      -5.03683637e-04 1.93935321e-05 -1.88171271e-05 -1.16813535e-05
      -1.44972888e-04 -9.51158348e-04 -4.30178503e-03 -8.89297866e-04
      1.02536585e-04 -3.74610274e-04 3.73206240e-05 6.93878101e-04
      5.44161230e-05 1.26495768e-04 3.08521907e-04 5.47169591e-04
      4.99051472e-04 2.60717003e-04 1.01958554e-04 5.22528080e-06
      4.09083186e-05 6.46994304e-05 -1.25141887e-04 8.02574796e-04
      1.89596030e-04 -2.86366645e-04 3.36900790e-04 1.38048845e-05
      5.10328609e-05 3.30300209e-05 1.55123507e-05 1.20778495e-04
      6.05846908e-05 2.38786070e-05 -6.49887807e-05 0. -1.44626174e-04
      1.48424297e-04 9.86086234e-05 -2.89772433e-04 -6.57127413e-04
      -2.53319624e-03 8.81976855e-04 -2.26263097e-03 8.48032301e-04
      -1.80948438e-04 8.91150703e-05 2.09986372e-03 1.97899630e-04
      3.08035960e-05 4.66672151e-04 -1.82358490e-04 2.58249906e-03
      1.67524966e-04 -9.87729989e-04 -5.43440634e-04 3.20687627e-06
      1.23204853e-04 2.18812726e-03 -1.76893736e-04 4.21867517e-05
      -2.75486469e-04 3.19307088e-04 3.73526447e-04 8.94237746e-05
      -1.15869523e-04 5.79402804e-05 1.36763983e-05 5.04700220e-05
      1.73986342e-03 6.29929709e-04 -1.32245317e-04 -4.22641278e-05
      -1.42502613e-04 -1.45508820e-04 1.22416877e-05 -5.18229324e-04
      3.38172656e-04 -2.14774325e-03 -1.89724451e-04 -1.10190979e-03
      1.19026005e-03 2.48900789e-04 1.76996167e-03 1.28888176e-04
      9.08010872e-04 1.14557799e-03 6.00376152e-05 1.74522819e-03
      3.37501348e-04 4.86769248e-04 7.32682165e-05 7.00807024e-04
      3.95758048e-04 2.94476864e-04 5.04011346e-04 5.14556777e-05
      7.23506382e-05 5.15934138e-04 1.08398090e-04 -8.75495665e-04
      3.86334257e-04 -7.06678897e-04 -7.88444777e-06 -2.77446306e-05
      2.66787916e-04 1.71235064e-03 7.51733887e-06 -5.68889198e-04
      1.52126187e-03 3.49113398e-04 3.02456639e-04 1.42737335e-04
      6.73499017e-04 3.91379232e-03 7.57896982e-04 -9.37641889e-04
      -4.34474670e-04 2.07075165e-04 8.73774407e-04 1.53037054e-05
      1.71667535e-03 2.32884868e-05 7.03168262e-05 4.51439526e-03
      1.77785609e-04 8.03433868e-05 2.83798745e-05 4.11940506e-04
      8.65378766e-04 6.13908283e-04 6.88657281e-04 3.02577682e-04
      4.16577619e-04 6.88065134e-04 4.51194792e-04 4.76639834e-05
      -3.14461533e-04 -2.17836438e-04 8.69351861e-05 2.32884868e-05
      5.70989621e-04 3.39827442e-04 0. -1.09386704e-07 3.49342590e-04
      3.81673599e-05 5.44174400e-04 3.10969073e-04 -9.72737849e-04
      1.32075301e-03 -1.34706683e-03 -7.30487925e-04 1.43740283e-04
      -7.99602640e-05 7.68803991e-04 3.45621229e-05 1.39104101e-04
      1.74820051e-03 1.29072258e-04 1.06144685e-03 7.47494632e-05 0.
      1.02572985e-05 3.26065812e-04 1.26249623e-04 6.65256113e-04
      1.04802498e-03 1.24595955e-03 -5.48473559e-04 7.70608371e-04
      9.56861128e-04 3.89676105e-04 -3.06716771e-04 -1.10199682e-04
      -1.18783770e-04 -9.61383193e-05 4.54102228e-05 8.13269056e-04
      -8.02400064e-06 -1.84735516e-04 1.36473085e-04 2.68479460e-04
      2.42287817e-04 2.19560764e-03 -1.28807768e-03 1.14235491e-03
      -4.35443409e-03 -1.12820591e-03 1.59253832e-04 -5.41510817e-04
      -2.15565760e-05 5.91659773e-05 1.48557581e-03 0. 0. 1.55093940e-03
      2.36874737e-04 6.67052082e-05 3.07718947e-05 -3.19817227e-05
      -3.79176890e-05 3.76953307e-04 4.43917263e-04 3.24678345e-04
      -7.14487338e-04 7.10055756e-05 2.86570954e-04 6.82062411e-04
      3.71548784e-04 1.33218302e-04 1.02388585e-04 8.11899736e-05
      -4.34007998e-05 2.96712940e-04 6.78956349e-05 6.06927089e-04
      4.91164566e-04 2.02213370e-04 -4.26018669e-04 6.91077439e-04
      1.64216082e-03 3.94202396e-03 5.15724486e-03 2.08330480e-03
      6.70274487e-04 -2.77728395e-04 -1.72666289e-04 -3.28042574e-04
      1.21951383e-03 -2.24071991e-04 -3.86641390e-04 5.20521484e-04
      -4.93842163e-05 3.07718947e-05 3.07718947e-05 6.58288656e-04
      -5.43482338e-06 7.15263086e-05 1.02788988e-04 5.54214930e-04
      9.44064959e-05 -2.82539731e-05 2.39386412e-04 6.77543052e-04
      8.66367482e-04 1.09809080e-05 4.97787914e-05 0. 7.90197373e-06
      8.84129142e-04 2.16202461e-04 3.54811600e-05 3.87901891e-05
      -2.62988382e-04 -1.10722918e-04 3.37374426e-04 7.17207033e-04
      7.30400352e-05 -4.29184362e-03 -8.10463156e-04 6.44541986e-04
      7.23358899e-05 1.43397163e-04 -3.34243290e-04 8.23370588e-04
      1.00857986e-04 3.24759894e-05 1.14776660e-03 9.20153034e-05
      1.20285615e-04 -5.02042531e-04 8.52139550e-04 -2.54440092e-05
      5.17961744e-04 1.21890618e-04 1.51927245e-03 -1.41756108e-03
      9.92011162e-04 1.58472212e-05 1.05535888e-04 5.50087134e-04
      -9.64514038e-06 5.89719508e-04 4.52914974e-04 1.60640222e-03
      6.05424575e-04 1.75680630e-04 3.65735250e-05 -9.97824736e-06
      -8.49290082e-05 -4.17340751e-04 1.92523967e-05 5.12298022e-04
      -2.59150169e-03 -1.85916387e-03 1.29282905e-03 -1.45064419e-04
      7.98745197e-04 3.12762888e-04 6.57114797e-05 1.09224394e-03
      -1.21360517e-03 0. 1.29128038e-03 6.40341314e-05 3.22037318e-04 0.
      1.27545930e-03 1.70954972e-05 9.25418688e-04 5.17952954e-04
      7.13318761e-04 -6.01121807e-04 2.66352654e-05 1.98830408e-03
      9.75933017e-06 4.07574116e-04 8.89528237e-05 -6.17890619e-04
      -3.62416933e-04 4.72114305e-04 1.39805570e-03 -8.46120995e-04
      -3.36705649e-04 3.89711873e-04 5.02016745e-04 2.22071161e-04
      6.91986643e-05 1.62081851e-03 1.25637406e-03 -5.42701967e-03
      1.33926238e-04 1.39655662e-04 -6.83570805e-04 -8.89633811e-05
      -1.22812533e-04 -2.32584061e-05 6.77952718e-04 5.43398019e-05
      9.32862225e-04 2.66151392e-06 -2.17392926e-06 -2.97117746e-04
      1.29703304e-03 -8.41896457e-04 8.71504832e-04 1.51978247e-03
      1.18804608e-04 -1.06481463e-03 -4.83915610e-05 8.28971853e-04
      2.41143898e-05 2.91142002e-04 4.14298593e-05 7.35456415e-05
      5.15432475e-05 0. 9.03744251e-04 0. -8.17707914e-04 3.48685935e-05
      4.24443890e-04 5.81597444e-04 8.55275081e-04 3.25799407e-03
      -1.75614143e-03 -1.15986832e-03 4.53505607e-04 -7.83615760e-05
      3.90528585e-05 6.31162329e-05 8.01442184e-06 -7.91576497e-07
      1.25201941e-05 0. 6.87854830e-04 2.70633245e-05 9.89590553e-05
      8.13226416e-06 5.49032760e-04 1.47465380e-05 8.73745652e-04
      1.73190601e-05 -3.77737597e-05 -1.18635432e-03 1.14577869e-03
      2.11659959e-03 0. 9.05586174e-04 1.00882007e-05 -9.50017493e-05
      6.20921637e-05 -3.04934802e-05 9.99337644e-04 1.74004366e-04
      -1.26759711e-04 1.05134583e-04 8.65398557e-04 -1.16867777e-04
      6.63839455e-04 5.38706873e-03 -2.40756152e-03 -3.78325372e-03
      2.79175839e-03 7.17102317e-04 6.78325770e-04 4.83146257e-04
      4.70115629e-04 1.46837672e-04 1.14537281e-04 0. 6.22556778e-04
      1.19779419e-04 1.15199146e-04 2.90081109e-04 3.89912078e-04
      2.46122909e-05 2.03923148e-04 1.30258515e-04 3.10158975e-05
      -1.53297570e-03 8.05046130e-03 8.54388997e-03 -3.39099861e-05
      2.26515438e-03 0. 3.20220628e-04 2.47991498e-04 1.25890932e-04
      1.33673963e-03 5.36466367e-04 -8.46494970e-07 -2.93873745e-05
      3.02949164e-04 3.18714592e-05 5.17663837e-04 1.77331036e-03
      -7.85687659e-03 5.47332875e-03 2.45244359e-03 1.27266964e-03
      5.79606567e-04 2.29441925e-04 3.12994147e-04 5.47056785e-04
      9.97514726e-05 6.49519789e-05 8.84159119e-04 5.50009645e-05
      9.97240422e-05 1.85543686e-04 3.96822812e-03 2.11325503e-04
      8.93544115e-04 2.49141798e-04 3.48496833e-05 -6.84857485e-04
      5.68497344e-04 2.14388617e-03 1.32992887e-03 1.75921165e-03
      6.94056740e-04 8.63457622e-04 8.13103630e-04 1.36511144e-03
      1.31189241e-03 1.41619379e-03 1.22633041e-03 1.21836364e-03
      1.33613287e-03 1.70183415e-03 2.99762608e-03 3.42501153e-04
      -8.76644906e-03 -6.33060001e-03 4.16471763e-03 3.43133789e-03
      7.57963979e-04 5.62217028e-04 2.82280060e-04 1.02183723e-03
      -6.77991629e-05 2.24491770e-04 4.46577033e-05 3.33383447e-04
      -2.66137104e-05 1.77121430e-04 1.92747932e-04 3.18194128e-04
      4.08949418e-04 1.20004534e-03 3.69147427e-04</_>
    <_>
      -4.39265859e-04 -1.52495934e-03 9.62948034e-05 -2.15432863e-03
      -3.96650797e-03 -4.68767574e-03 -9.21649160e-04 2.31893919e-05
      5.33305632e-04 2.77365861e-03 2.69681943e-04 7.25351856e-04
      9.78921773e-04 -2.56941072e-04 -4.82772011e-05 6.87909604e-04
      -1.39333901e-03 -6.62796723e-04 1.67894200e-03 -1.55848754e-03
      -3.10386858e-05 3.68153676e-04 2.07696273e-03 -2.00870461e-04
      -2.01401330e-04 -5.25529940e-05 -5.20680442e-05 -8.50775323e-05
      -5.96255886e-05 -3.15197249e-05 1.44201331e-05 -6.50373870e-04
      2.75793747e-04 1.58903640e-04 -3.81879472e-05 2.89236894e-04
      -2.06720433e-03 5.43587703e-05 4.99409914e-04 3.26125766e-04
      -2.72292033e-04 -6.02923287e-03 -1.10593799e-03 -3.58745363e-03
      6.63590472e-05 2.47201719e-03 8.14274536e-04 6.73413801e-04
      1.44009700e-03 -4.84525110e-04 2.40274094e-04 1.29335429e-04
      -2.08476465e-03 -3.89151799e-04 1.45331421e-03 -1.60067994e-03
      2.49510107e-04 3.32370146e-05 -8.18415283e-05 -1.14913950e-04
      -1.42731442e-04 -1.06757543e-04 1.96129422e-05 2.79517029e-03
      1.72988570e-04 2.73106452e-05 3.80686470e-05 1.32271613e-03
      2.08521978e-05 -3.21485102e-04 -1.92283434e-04 3.97620490e-03
      9.31510236e-04 8.72292439e-05 4.39290714e-04 2.34157080e-04
      -2.75193318e-03 -2.57294998e-03 -4.50416701e-04 -7.82209332e-04
      1.17585754e-04 -1.23118365e-03 7.91692728e-05 3.33506750e-06
      3.83406405e-05 -9.94155998e-04 2.02666943e-05 -1.72773900e-03
      -1.03466236e-03 -3.54116870e-04 1.93455245e-03 -1.42137019e-03
      -3.13303608e-04 5.38709108e-04 1.79370248e-03 1.47601371e-04
      1.37772091e-04 -3.81886261e-04 3.29854047e-05 1.30454835e-03
      -6.14565652e-05 4.43879944e-05 1.10959423e-04 1.41028245e-03
      -6.73675502e-04 -1.25269726e-04 1.98923051e-04 -5.18284040e-04
      3.75992502e-04 1.24636281e-03 -2.26879190e-03 -5.24867978e-03
      1.15870032e-03 -3.28154885e-04 -1.52192696e-03 4.56322186e-06
      1.96003559e-04 2.49203295e-03 -1.18189782e-05 2.17790566e-05
      -1.58770981e-05 -2.51689227e-04 5.33510756e-04 5.07809105e-04
      -4.14081383e-04 -2.17349990e-03 1.15892026e-05 -1.97159383e-03
      -2.90472934e-04 4.99751477e-04 4.96172230e-04 2.34028732e-04
      2.60333531e-04 -3.23234097e-04 1.78575036e-04 -5.81085369e-05
      2.34867388e-04 2.90264608e-04 1.66307203e-04 -4.89226310e-04
      2.57927759e-08 1.88017410e-04 -4.65568155e-04 -1.26453961e-05
      7.12667243e-04 -1.53995096e-03 3.41787981e-03 -3.77101707e-03
      1.42665231e-03 -5.49900928e-04 7.38489762e-05 4.37608629e-04
      8.44779206e-05 -1.19912358e-04 3.36691563e-04 7.06673891e-04
      2.79728585e-04 -1.93600601e-04 -1.24104234e-04 -6.34095923e-05
      9.72964044e-04 -7.23788515e-04 1.20969652e-03 -1.47349504e-03
      -3.48791255e-05 -5.26574207e-04 1.43320963e-03 3.88956920e-04
      1.85557205e-04 -3.12056602e-03 -7.19350297e-04 4.45821323e-03
      4.61426389e-04 3.10620904e-04 2.05594071e-04 -2.44481314e-04
      -2.36068718e-05 -4.52862078e-05 -1.53034416e-04 -3.46118723e-05
      4.33092267e-04 -6.31864008e-04 1.17675588e-03 2.69263377e-03
      3.76812904e-03 3.68428038e-04 -4.02429490e-04 1.52652952e-04
      9.06710993e-05 1.38387736e-03 1.03779996e-06 3.30333569e-05
      5.32966624e-05 -8.79165193e-04 -1.57859977e-04 -2.46632705e-03
      1.84427787e-04 -5.77044499e-04 -1.00523699e-03 4.11953260e-05
      1.28583662e-04 -5.45884483e-04 1.39869796e-03 1.56714508e-04
      1.32213900e-04 -6.53885130e-04 -1.81466501e-04 2.01568403e-03
      2.93832127e-04 7.52908352e-04 2.88898707e-04 -1.22536346e-03
      -9.39374368e-05 -2.50455400e-04 -1.87247409e-04 -3.04421788e-04
      -4.43363708e-04 2.22477294e-03 -5.90964446e-05 1.86571051e-04
      2.44258693e-03 5.99677296e-05 1.91369443e-04 -1.05244930e-04
      9.54220013e-05 1.69623049e-03 7.19453456e-05 -3.65139777e-03
      5.58030908e-04 2.06764773e-04 -3.74699268e-03 -9.94135742e-04
      -3.22455999e-05 5.57458086e-04 3.79222143e-03 -6.92712565e-05
      -7.57162707e-05 -2.24045114e-04 6.26631954e-04 -6.74146067e-05
      -5.03896154e-04 -1.40702377e-05 5.86038482e-07 -4.49673389e-04
      2.96762126e-04 9.65626823e-05 3.38752754e-04 1.76158046e-05
      -6.34344527e-04 -1.22916303e-04 1.95975481e-05 -2.79748056e-04
      3.84949613e-04 2.82614864e-03 8.92903699e-05 1.16331008e-04
      -2.25545955e-04 -3.14556496e-06 4.55820758e-04 2.99866864e-04
      -4.68573737e-04 8.44834794e-05 9.33605479e-05 1.46908383e-03
      6.77797594e-04 1.17080956e-04 1.71756343e-04 -6.72492140e-04
      -1.55526493e-03 -3.77092540e-04 -1.65485765e-03 2.36671825e-04
      -1.58647512e-04 -5.61258603e-05 1.53143320e-03 3.97304348e-06
      -1.65728328e-04 -9.92884379e-05 1.23903619e-05 1.64612313e-03
      4.84635420e-05 1.79381641e-05 -6.87198015e-04 -9.92969377e-04
      3.37177538e-04 5.36055479e-04 -1.27930532e-03 -1.03831568e-04
      -9.61699407e-04 -2.93252146e-04 4.18569613e-03 -2.32685110e-04
      -4.51046624e-04 7.82199913e-06 -1.66601807e-04 -4.63410688e-04
      -1.76234626e-05 1.89225108e-03 2.62264166e-05 1.70038882e-04
      2.39942165e-05 1.10137754e-03 -8.22087936e-03 -1.47896266e-04
      -7.15149799e-04 -7.23905163e-04 -5.75285521e-04 2.24522271e-04
      1.14661839e-03 2.07293226e-04 2.03730515e-03 8.45354152e-05
      3.60706268e-04 1.68417173e-04 8.59321735e-05 2.85184057e-03
      1.61574106e-04 5.96653903e-04 -2.25451449e-03 6.54118892e-04
      -2.80381157e-03 -3.01561580e-04 -1.50526396e-03 1.15299932e-04
      -1.01189862e-03 6.36148825e-03 -1.76565402e-06 -3.80628859e-04
      1.74411398e-04 1.39497815e-05 -1.57217763e-03 -1.19251177e-04 0.
      6.92172209e-04 -4.53343819e-05 1.59983101e-05 1.11377056e-04
      6.26048306e-04 -1.12474547e-04 2.18388683e-04 4.55347094e-04
      -9.18370113e-03 2.46190629e-03 -1.73336011e-04 1.27956795e-04
      1.97036265e-04 9.88619751e-04 -1.36490169e-04 2.31430586e-05
      3.03850575e-05 1.05364612e-04 5.89085277e-03 1.62939486e-05
      -4.61958465e-04 -7.66723009e-04 -1.80406158e-03 4.48484716e-05
      1.85272656e-04 -3.58048739e-04 1.19752309e-04 -1.99207527e-04
      5.92294894e-03 4.87481811e-05 2.42643699e-04 1.67203878e-04
      1.06946833e-03 4.26628161e-04 -2.07323988e-04 3.88018134e-06
      -2.47922027e-03 -3.47529858e-05 2.32618168e-05 5.08398982e-04
      1.13091191e-04 2.48133962e-04 2.96068203e-04 -2.07233522e-03
      9.52869537e-04 2.68796086e-03 -2.88622756e-03 -1.57785798e-05
      7.46728183e-05 8.61335138e-04 6.28469070e-06 3.70255802e-05
      2.32276710e-04 2.27512082e-05 1.42248662e-03 3.77128199e-05
      -1.30288070e-03 -4.64675622e-03 -1.67385710e-03 -1.15281821e-03
      2.83060130e-04 -1.39122445e-03 3.40992992e-04 -5.28245175e-04
      -7.52021078e-05 3.52111598e-03 3.54932691e-03 -2.14675194e-04
      -1.89301209e-04 -1.86637481e-05 -7.15740462e-05 -1.33598014e-05
      1.06083835e-03 3.16261401e-04 3.03321849e-06 8.33029571e-06
      1.34083937e-04 -1.84101844e-03 2.84790422e-05 -2.52481666e-04
      1.41467162e-05 -4.44604270e-03 -3.61221400e-03 -5.25327283e-04
      -4.27786668e-04 9.94481379e-05 2.22359682e-04 1.95880348e-04
      7.88970501e-05 8.11306454e-05 1.05999946e-03 4.46394479e-05
      1.05899046e-04 -7.54922512e-04 -1.55617134e-03 3.86946958e-05
      -7.00692995e-04 -2.75247172e-03 2.84292255e-05 -3.53912590e-04
      -2.77110771e-03 -9.80380340e-04 8.65326356e-03 -2.13317480e-03
      1.19479519e-04 -4.09035310e-05 4.09855093e-05 -3.09623283e-05
      -6.15561730e-05 8.38661799e-05 -7.12972105e-05 5.40387882e-05
      2.06463243e-04 9.72964772e-05 -1.57424688e-06 -2.76362151e-03
      -7.09958185e-05 1.81167223e-03 -3.94869410e-03 4.96767636e-04
      -1.32067525e-03 1.44398611e-04 1.65376026e-04 1.64289144e-04
      1.38995165e-04 1.41220371e-04 1.83739676e-03 1.60067168e-04
      4.71192412e-04 6.55586846e-05 3.05774040e-04 -1.49553045e-04
      -6.59428479e-04 2.45925126e-04 1.48650550e-03 3.15137331e-05
      -1.33467407e-03 -8.36266263e-04 7.97046442e-03 2.55907740e-04
      -6.27300702e-04 -5.32454251e-05 1.75019923e-05 9.31559407e-06
      1.28718466e-03 9.11867610e-05 1.45498983e-04 6.08014943e-06
      1.33958056e-05 -1.23206883e-05 -5.74262813e-05 -5.62014000e-04
      5.32391656e-04 4.91039071e-04 -3.87791515e-04 -1.89924758e-04
      -1.29091000e-04 3.34388242e-05 5.95689962e-05 -1.07753785e-05
      -4.64357890e-06 1.67397375e-05 2.13876972e-03 3.68087094e-05
      3.63551168e-04 -8.14447703e-05 3.74961033e-04 -1.12875309e-02
      4.55870759e-04 -4.17108095e-04 6.55480078e-04 -4.53025268e-06
      -8.47576011e-04 -1.45439338e-03 -1.57074258e-03 5.01898536e-03
      -1.75433455e-03 2.52357614e-03 -3.15881101e-04 1.65103047e-04
      6.52009447e-04 8.27004085e-04 -5.17409626e-06 4.91809151e-05
      1.45158256e-05 1.31784691e-04 -6.05623284e-03 -1.02275098e-03
      -3.93092603e-04 -2.53854465e-04 -1.39320458e-04 1.89176117e-05
      3.40739061e-05 8.44259994e-05 -2.52107478e-04 -2.49237582e-05
      -3.75260170e-05 3.86166939e-05 1.27531763e-03 -1.41490193e-04
      4.66178317e-04 -4.57804324e-03 1.29219529e-03 -6.08397313e-05
      1.33133912e-03 1.69139949e-03 8.28455202e-04 -5.74206701e-04
      -5.69822092e-04 4.18366399e-03 -8.96581478e-05 -5.41724614e-04
      1.67114031e-05 -1.98318646e-03 -3.49671209e-05 9.07781068e-05
      1.95514993e-03 1.46225662e-04 6.70707186e-06 2.00876864e-04
      1.03380415e-03 2.66843126e-04 -2.15983600e-04 -2.53471313e-04
      -5.16558765e-04 1.53034681e-03 -5.50811637e-06 -2.49147779e-05
      1.20424729e-05 -9.55073119e-07 -5.47125610e-03 -9.56465956e-03
      -2.26589211e-04 1.50938122e-05 9.17022058e-04 -2.14937128e-04
      6.15640893e-05 -1.17731412e-04 2.31367172e-04 -7.39103300e-04
      1.49969931e-03 1.70766446e-03 3.12809570e-05 -1.21585932e-03
      -1.75518903e-03 1.00262649e-03 -3.56852805e-04 -1.71624159e-03
      -4.35774506e-04 -1.03666889e-03 -3.83877399e-04 1.12237874e-04
      2.86273588e-03 0. 1.33052433e-03 3.06592410e-05 4.82935080e-04
      2.78345571e-04 -4.91919171e-04 -9.38177109e-04 -9.05494235e-05
      -4.50850901e-04 1.85942263e-04 6.01194479e-05 8.91497439e-06
      -2.46496202e-04 -4.65905946e-03 -2.65863142e-03 -4.76490037e-04
      -9.50243557e-04 1.54145891e-04 1.04137382e-03 2.99677849e-05
      -1.79157032e-05 -5.88797906e-04 -2.30244899e-04 1.69531006e-04
      -2.37211570e-04 -1.59995587e-04 -6.90826157e-04 1.69441453e-03
      2.41916347e-03 -3.27916263e-04 6.41635561e-04 -4.29565465e-04
      -9.74936062e-04 -4.01432073e-04 6.55425101e-05 2.41270731e-03
      -6.04457819e-06 7.17595976e-05 -4.35061302e-05 7.18294410e-04
      9.54829811e-05 5.57465755e-05 -3.75944044e-04 6.97764219e-04
      1.50443753e-03 -1.05723983e-03 1.36408516e-05 1.63883218e-04
      -3.78267781e-04 -4.43338137e-03 -1.46022603e-05 -2.21047405e-04
      -3.87566310e-04 -1.36110978e-03 -8.51678269e-05 -4.13112895e-04
      6.64252962e-04 1.10522506e-03 -2.96811573e-04 1.40439812e-03
      -2.21660617e-03 1.87308149e-04 -6.62688108e-04 6.29151182e-04
      1.37328112e-03 -2.46053358e-04 -1.26904994e-03 -2.99777603e-03
      -4.02313308e-04 -2.01596544e-04 9.83180580e-05 2.28991522e-03
      1.46236867e-04 -6.45688197e-05 -9.27940055e-05 -2.70638448e-05
      -4.51771011e-05 -7.97179528e-05 -9.02625834e-05 9.63773811e-04
      -1.73023509e-04 -3.87151958e-04 4.84320335e-04 1.89493585e-04
      6.93142181e-04 1.13872920e-04 -2.86479946e-04 -1.49740763e-02
      -4.05889441e-04 -6.73533243e-04 2.69669807e-04 3.57673794e-04
      1.03863138e-04 3.21377302e-03 1.42210128e-03 1.91053620e-03
      6.26762514e-04 1.25812134e-04 -1.23798684e-03 -5.31823956e-04
      -6.66811364e-04 5.96474740e-04 4.23443562e-04 -1.62758178e-03
      -1.63337856e-03 -5.20277463e-05 6.66445994e-05 5.63572976e-04
      2.54270504e-04 4.40260264e-05 9.01231979e-05 3.22282838e-04
      1.61360687e-04 4.99295304e-04 1.65128114e-03 1.06218911e-04
      2.89623300e-03 1.24451634e-03 3.05878231e-03 3.95545387e-04
      2.92255514e-04 2.16423272e-04 3.61757498e-04 -1.00659311e-03
      1.62108307e-04 1.62159835e-04 2.39576970e-04 1.62687938e-04
      3.36288795e-04 -2.25213403e-03 2.59142660e-04 4.79943468e-04
      1.87304366e-04 3.59944679e-04</_>
    <_>
      -2.39912979e-03 9.51011374e-04 1.09084812e-03 -1.58548774e-03
      -2.25930754e-03 -2.33280286e-03 -5.86738344e-04 1.33519658e-04 0.
      -2.60526314e-04 -4.95474960e-05 -5.51300618e-05 -2.86014023e-04
      -3.25360335e-04 -2.75640894e-04 -1.42474790e-04 -4.41984128e-04
      1.30211317e-03 -6.34161173e-04 -2.52334285e-03 -4.79119510e-04
      -6.61984202e-04 -3.53205018e-04 -2.36223824e-03 -1.46000239e-03
      -2.34963718e-05 -9.05873138e-04 -1.23275234e-03 -5.03171977e-05
      -1.52489665e-04 -5.79664411e-05 -5.30575577e-04 -4.34369103e-05
      -5.09619531e-05 -5.88633702e-04 1.79899842e-04 1.91173356e-04
      8.12536018e-05 7.70788465e-04 8.01377755e-04 -1.42483460e-03
      -3.40462779e-03 -3.16566526e-04 -2.03144364e-03 1.96402572e-04
      -1.26507570e-04 3.35250807e-04 -4.36301227e-04 0. -8.48055002e-04
      -2.55976862e-04 -2.07734833e-04 -8.39627173e-04 7.53156608e-04
      -8.63630266e-04 -1.84646540e-03 -3.46890825e-04 -3.54573393e-04
      -5.48909360e-04 -3.91223803e-05 -8.30922945e-05 -3.87629319e-04 0.
      -5.04731608e-04 -7.34391680e-04 -3.35447985e-05 0. -4.38395451e-04
      -1.18338903e-04 -7.02844845e-05 -6.70778274e-04 -1.36805035e-03
      1.33131852e-03 1.29939624e-04 2.50566489e-04 7.94061343e-04
      -2.89075053e-03 -1.57413026e-03 -6.42607454e-04 -5.07725345e-04 0.
      -1.32645934e-03 -4.55344707e-05 9.41246708e-06 4.70730418e-04
      -1.20432663e-03 -1.75923589e-04 -1.17039331e-03 -8.12534243e-04
      8.85700632e-04 -1.74629001e-03 -2.00393936e-03 -1.18978508e-03
      -2.34734282e-04 5.69004216e-04 0. 0. -8.69413852e-05 0.
      2.71717145e-05 -1.89682294e-04 0. 0. -1.38802410e-04
      -4.01778700e-04 -5.27678116e-04 -7.42037606e-04 -2.86059943e-03
      3.34080169e-03 -3.81015634e-05 -2.75333587e-04 -3.18150572e-03
      -7.14185124e-04 -7.46561389e-04 -9.63044062e-04 1.55012240e-05 0.
      7.33574416e-05 -7.24051788e-05 1.17058004e-03 7.97337270e-04
      2.91215372e-04 -1.62599536e-04 -5.59058681e-04 -8.94846045e-04
      -6.59999714e-05 -1.83374388e-04 -1.89651595e-03 -1.87221318e-04
      4.61418560e-04 -5.83969289e-04 0. 0. -9.03708496e-05
      -5.79664411e-05 -4.61589632e-04 0. -3.52447023e-06 -1.53795065e-06
      -4.67743434e-04 -2.27306755e-05 -1.55386533e-05 -1.02325890e-03
      5.15786582e-04 2.20978213e-03 -1.74055633e-03 -1.63088436e-04
      -1.99067406e-03 -7.73921085e-04 -1.59813091e-03 -1.67576072e-04
      4.37311137e-05 -9.29178555e-07 -7.14532798e-04 -5.38155000e-05
      6.19854109e-06 0. -5.09543752e-04 -2.08610669e-04 -4.92334948e-04
      -3.68927518e-04 5.11783699e-04 -6.72678172e-04 -5.16392116e-04
      -1.12817161e-05 6.39650621e-04 -1.16281763e-05 -3.62346589e-04
      -3.35447985e-05 -1.32467176e-04 -1.08687076e-04 -9.29440212e-05
      -1.29258365e-06 -1.29258365e-06 -9.69437679e-07 -3.18594743e-04
      -3.52861214e-04 -1.63740828e-04 -3.75909760e-04 -1.25579478e-04
      -3.97747732e-04 -2.15513166e-03 -5.47150848e-04 -5.61624242e-04
      -6.64036896e-04 -1.37774748e-06 -3.87560111e-04 1.50284526e-04 0.
      -7.81935682e-07 1.69181876e-04 8.58073836e-05 0. -6.17514379e-05
      -3.93825321e-05 -3.67509143e-04 -7.69886072e-04 -3.10350501e-04
      2.08407175e-04 8.53980164e-05 -5.89077186e-04 -1.58585884e-04
      -8.12116486e-05 -9.90949920e-05 -1.67723992e-05 0. -1.23178688e-04
      -1.07625827e-04 -1.24958490e-06 -1.12109970e-04 -7.68975326e-07
      -1.00921595e-03 -2.01856028e-06 -4.16600873e-04 -2.84549402e-04
      -7.91677448e-04 -1.14754669e-03 -2.71164987e-04 -6.77782169e-04
      -3.28384522e-05 -2.01015879e-04 -1.12142232e-06 -1.92243832e-07
      -8.93648539e-05 7.83481169e-04 -3.57467739e-04 7.38495030e-04
      1.20478144e-04 4.81900614e-04 1.10639958e-04 -7.70296145e-04
      -1.25346042e-03 -3.98019067e-04 1.85385579e-03 2.84902961e-03
      -7.08498002e-04 1.24803832e-04 -4.19786607e-04 -2.71722558e-04
      -1.87424630e-05 0. -8.72493911e-06 0. -7.70839630e-04
      -3.91223803e-05 -7.29707026e-05 -1.05734114e-06 -2.61101144e-04
      -4.96802095e-04 7.38932635e-04 -1.19002536e-03 -6.82338665e-04
      8.33277474e-04 -3.03488341e-04 -2.71432276e-04 -2.71975121e-04
      -4.28837899e-04 -1.39044132e-04 -1.51781569e-04 0. -5.03171992e-04
      -5.37397864e-04 0. 3.15255806e-04 1.57115574e-04 2.36522319e-04
      3.78641533e-04 -4.01923171e-04 7.12468463e-04 -1.22562284e-03
      2.07406891e-04 -1.58282870e-03 -8.02112627e-05 -1.14658382e-04
      -1.26076501e-03 -4.48568954e-07 -5.28202945e-05 -8.33056617e-07
      1.70433428e-03 -1.09627820e-03 0. 1.59624079e-03 4.50373394e-04
      -7.38050323e-04 -5.07206387e-05 -1.63539674e-03 2.16550121e-04
      4.29218664e-04 -7.98661262e-04 -9.74102993e-04 -9.93479625e-04
      -2.66101066e-04 -4.03209735e-04 0. -2.35977903e-04 -2.69513082e-04
      -5.87033974e-05 -6.00677122e-05 2.09047648e-05 1.39365093e-05
      2.09047648e-05 1.91586907e-04 -1.82134187e-04 -2.67735129e-04
      2.23518418e-05 -1.02359941e-03 1.56114518e-03 -2.68496424e-05
      -7.25948892e-04 -5.92422555e-04 -2.95474863e-04 0. -6.09048730e-05
      -1.79427582e-06 0. -1.55594360e-04 -2.51585989e-05 -6.73614995e-05
      -1.40006095e-03 -1.50386375e-04 -1.71163410e-03 -5.10935090e-04
      -1.90129702e-03 -1.95790012e-03 -1.72505667e-03 -8.98174185e-04
      -1.30407934e-04 6.59330282e-04 -6.61273007e-05 9.09506576e-04
      -1.24634814e-03 -6.36249533e-05 3.42337917e-05 -9.91874258e-04 0.
      1.22057194e-04 5.96991995e-05 -1.80533912e-04 -3.20743333e-04
      2.29802230e-04 -1.12586934e-03 -1.69034221e-03 -1.94542098e-03
      4.35802824e-04 7.51234882e-04 -3.92185029e-05 -1.97733621e-04
      -1.24060985e-04 -1.67723992e-05 -3.20406400e-07 -2.88365754e-07
      -2.51906404e-05 -2.66004281e-05 -3.27897054e-04 -4.13530506e-04
      -1.71859155e-03 -9.61219158e-08 -1.01761681e-04 -1.25775079e-03
      2.89392308e-04 -1.18339807e-03 -6.19711122e-04 -8.21888389e-05
      3.48188012e-04 7.44827499e-04 1.10864989e-04 -6.38034195e-04
      -9.26967623e-05 0. -1.62601063e-03 -1.01806792e-04 1.39211043e-04
      7.71042833e-05 1.63718170e-04 -7.58907845e-05 6.67288696e-05
      -4.88197606e-04 -1.51572784e-03 -2.97188992e-04 1.23981328e-04
      2.62584421e-04 9.10122471e-05 -5.42001617e-05 0. -6.07126276e-05
      -9.61219158e-08 0. -6.35941251e-05 0. -8.38524255e-04
      -2.80012190e-03 -1.21668493e-03 -8.20193032e-04 -3.85132036e-04
      -1.38147420e-03 1.49177707e-04 -3.60148551e-04 -1.78653601e-04
      -7.82955321e-04 -2.13433465e-04 2.65031296e-04 -2.81928465e-06
      1.22476369e-04 -9.87082312e-05 0. 1.04605162e-04 -9.66846565e-05
      -1.16816591e-04 -2.24908785e-04 -3.25110537e-04 -4.08023843e-05
      -7.38368863e-06 -8.77017592e-05 -5.81908680e-04 3.69272241e-03
      7.78869609e-04 -1.00923725e-03 1.23579026e-04 2.93401681e-04
      4.52912427e-05 3.80513884e-05 -1.02530043e-06 0. -6.25535147e-04
      0. 7.16390423e-05 -6.72877533e-04 -1.18088862e-03 2.37775836e-04
      -3.47538553e-05 -2.31003808e-03 4.61948337e-04 7.75017485e-04
      -2.10033450e-03 -7.61269068e-04 -4.66686965e-04 -1.65370060e-03
      7.16390423e-05 7.10728091e-06 -7.89176192e-05 -1.32501242e-04
      -4.54163179e-04 -1.22388505e-04 8.11979480e-05 -8.65430557e-05
      1.46723905e-04 5.36715779e-05 -4.20960365e-04 -1.41654385e-03
      -1.15388044e-04 4.55276109e-04 -7.98701658e-04 -3.39995836e-06
      -1.55064132e-04 4.78154951e-04 2.85965914e-04 2.80997599e-04
      1.82357879e-04 2.60286964e-04 1.33526904e-04 5.86150345e-05
      -1.51432192e-04 -1.06247098e-04 -3.16682184e-04 8.72996679e-05
      1.08472908e-04 -5.34904422e-04 -1.25939987e-04 1.42632530e-03
      -1.36841100e-03 -7.96890527e-04 -1.41398504e-03 -1.12127513e-03
      2.70096075e-06 1.58122435e-04 -7.47009617e-05 7.11192624e-05
      -5.37841988e-04 -1.14965762e-04 -8.22026850e-05 2.05485281e-04
      -3.42990934e-05 1.68552433e-04 -2.36901658e-04 -1.73446795e-04
      -6.72524271e-04 2.97310320e-03 7.32477274e-05 1.68239188e-04
      -1.70624640e-04 1.49390660e-04 3.97279655e-04 3.58201418e-04 0.
      -2.30692604e-06 -2.76702660e-04 -8.11284190e-05 -1.67529870e-05
      2.78115098e-04 -2.94228637e-04 -3.95279174e-04 3.77475983e-04
      -7.05200073e-04 1.16570620e-04 8.31405283e-04 -1.80484715e-03
      -9.54417628e-04 -1.12666690e-03 -1.20268880e-04 -5.62681176e-04
      4.84707416e-05 -1.56489521e-04 -1.43448735e-04 1.94307722e-04
      -4.48648461e-05 -3.20188956e-05 -1.93943415e-04 -2.71825818e-04
      5.56758023e-05 -9.79742399e-05 -1.65093679e-03 -4.96757957e-06
      2.79893447e-03 4.11006709e-04 5.66830859e-04 5.45773328e-05
      7.25930076e-05 -2.51368037e-04 -3.28575370e-05 9.45178967e-04 0.
      -8.28663178e-04 1.25701144e-05 -1.28480126e-04 -2.36394990e-04
      -7.05995189e-04 0. 3.63740197e-04 1.79146271e-04 7.53206186e-05
      1.45299081e-03 -4.65947058e-04 -1.28521374e-03 -1.88969483e-04
      -2.11245543e-03 -6.10057497e-04 -7.74205488e-04 1.56017370e-04 0.
      -7.92113831e-04 6.98909280e-04 6.19854109e-06 0. -1.12814363e-04
      4.18095296e-05 -9.20065970e-04 -2.23471457e-03 1.44501333e-04
      2.40804651e-03 -6.23574670e-05 1.42557783e-05 5.18919085e-04
      8.58351268e-05 -1.49698026e-05 -2.70108401e-04 1.26420869e-04
      -1.18550361e-06 -8.98636208e-05 -2.76744599e-04 -2.49348959e-04
      -2.35777872e-04 -7.57163798e-04 2.86314928e-04 1.59668169e-04
      -1.04177605e-04 7.13675981e-05 -8.25372044e-05 -6.18701510e-04
      2.46650143e-05 -5.62686881e-04 -1.71081093e-03 -3.41616396e-04
      -4.44365665e-04 -2.22474642e-04 -9.10689414e-05 -1.42876859e-04 0.
      6.26552966e-04 0. 4.20314318e-04 4.39014722e-04 -2.07926147e-03
      -2.25523068e-03 5.62636298e-04 1.35039038e-03 7.09281536e-04
      1.29159074e-04 4.17248957e-05 1.54002337e-04 -5.74559162e-05
      1.25990491e-05 -1.27911946e-04 -1.59722287e-04 -3.69355897e-04
      -1.24958490e-06 5.44411614e-06 -8.73489334e-05 -3.74260097e-04
      5.58449719e-05 -7.57473463e-04 2.78353164e-05 9.75092989e-04
      7.64533121e-04 -5.15816559e-04 -6.70800044e-04 -8.70088523e-04
      -8.29503289e-04 -5.00326045e-04 -8.40675319e-04 -9.23138170e-04
      4.25283593e-04 -7.39963842e-04 -1.18124750e-04 1.11694459e-03
      -1.01113554e-04 -1.75741254e-04 1.06228061e-03 -2.32896564e-04
      -1.68762472e-03 2.34929170e-03 2.76382570e-03 -1.48095051e-03
      -3.67961038e-04 -1.99149465e-04 -7.47609010e-05 -2.03698088e-04
      4.90227685e-05 -1.55667047e-04 -3.28631781e-04 -1.27706327e-03
      -3.46886409e-05 -9.90238768e-05 -1.19191172e-05 -5.57452768e-05
      -9.69230750e-05 -8.68216011e-06 -1.61197374e-03 1.23802281e-04
      6.64752326e-04 -1.39841635e-03 -1.76809760e-06 -2.79296910e-05
      -9.52455972e-04 -1.95434550e-03 -6.95499999e-04 -3.69511574e-04 0.
      -6.29645714e-04 -2.27672354e-04 -1.81521282e-05 6.54586125e-04
      -4.30720720e-05 -5.34164828e-05 1.46596294e-05 1.59779424e-03
      4.52898024e-03 -3.69263696e-03 -1.27332238e-03 -1.53948189e-04
      9.17947691e-05 2.14287138e-05 6.69235887e-05 -2.83204135e-04
      -6.62760402e-04 -4.86399571e-04 -1.57802342e-03 -6.56248594e-05
      -3.39291073e-05 4.68058352e-05 1.17226205e-04 2.77171901e-04
      -8.45844042e-05 1.66784303e-04 7.46434453e-05 3.52448813e-04
      7.06507781e-05 -1.26953656e-03 -1.38234012e-04 -6.97282900e-04
      -1.23890012e-03 -1.65274122e-03 -3.76453041e-04 0. -9.64431441e-04
      -2.51585989e-05 -2.03574935e-04 -1.37410170e-04 -3.34800279e-05
      -5.42001624e-04 4.83988806e-05 1.68527209e-03 2.86609563e-03
      -2.81593925e-03 -1.23650616e-03 2.99646090e-05 0. 2.07654259e-04
      0. -9.89148539e-05 -6.85973035e-04 0. 2.62904214e-04
      3.74446681e-05 4.86178236e-04 -2.59529179e-06 5.53591490e-05
      1.01173231e-04 -2.61303765e-04 -8.15223611e-04 -4.98756417e-05</_></support_vectors>
  <uncompressed_sv_total>68</uncompressed_sv_total>
  <uncompressed_support_vectors>
    <_>
      0. 0. 0. 0. 0. 0. 0. 0. 0. 2. 0. 0. 0. 0. 0. 0. 0. 0. 2. 0. 2. 0.
      1. 0. 0. 0. 0. 1. 0. 2. 0. 0. 0. 0. 0. 0. 0. 0. 0. 0. 1. 0. 0. 0.
      0. 1. 0. 0. 0. 0. 0. 0. 0. 0. 3. 0. 0. 0. 0. 0. 0. 0. 0. 1. 0. 0.
      0. 2. 0. 0. 0. 0. 0. 0. 0. 0. 0. 0. 0. 0. 0. 0. 0. 0. 0. 0. 0. 0.
      0. 0. 2. 0. 0. 0. 1. 0. 0. 0. 0. 0. 0. 0. 0. 2. 0. 0. 0. 0. 0. 0.
      0. 0. 0. 0. 0. 0. 0. 0. 0. 0. 0. 0. 0. 0. 0. 0. 3. 0. 0. 0. 0. 0.
      0. 0. 0. 0. 0. 0. 0. 0. 0. 0. 0. 0. 0. 0. 0. 0. 0. 3. 0. 0. 0. 1.
      0. 0. 0. 0. 0. 0. 0. 0. 1. 0. 0. 0. 1. 0. 0. 0. 0. 5. 0. 0. 0. 0.
      0. 0. 0. 0. 0. 0. 0. 5. 1. 0. 0. 0. 0. 1. 0. 0. 0. 0. 0. 0. 0. 0.
      3. 0. 0. 0. 0. 0. 0. 0. 0. 1. 0. 0. 0. 0. 0. 0. 0. 0. 0. 3. 0. 0.
      0. 0. 0. 0. 0. 2. 0. 0. 0. 0. 0. 0. 0. 0. 2. 0. 0. 0. 0. 0. 0. 0.
      0. 0. 0. 0. 0. 0. 0. 0. 0. 0. 0. 4. 0. 0. 0. 0. 0. 0. 0. 1. 0. 2.
      0. 5. 0. 0. 0. 0. 1. 0. 0. 0. 0. 0. 0. 0. 0. 1. 0. 0. 0. 0. 0. 0.
      0. 0. 0. 0. 8. 0. 0. 0. 0. 0. 0. 2. 0. 0. 0. 2. 0. 0. 0. 0. 3. 0.
      0. 0. 0. 0. 0. 0. 0. 2. 0. 0. 0. 0. 0. 0. 0. 0. 0. 10. 0. 0. 0. 0.
      0. 0. 0. 3. 0. 0. 0. 1. 0. 0. 0. 0. 4. 0. 0. 0. 0. 0. 0. 0. 0. 1.
      0. 0. 0. 1. 0. 0. 0. 0. 0. 9. 0. 0. 0. 0. 0. 0. 0. 0. 0. 0. 0. 0.
      0. 0. 0. 0. 2. 0. 0. 0. 0. 0. 0. 0. 0. 1. 0. 0. 0. 0. 0. 0. 0. 0.
      0. 0. 5. 5. 0. 0. 0. 0. 0. 0. 0. 0. 0. 0. 0. 0. 0. 0. 5. 0. 0. 0.
      0. 0. 0. 0. 0. 0. 0. 0. 0. 2. 0. 0. 0. 0. 0. 0. 0. 14. 0. 0. 0. 0.
      0. 2. 0. 0. 0. 0. 0. 0. 0. 0. 0. 0. 0. 0. 0. 0. 0. 0. 0. 1. 0. 0.
      0. 0. 0. 0. 0. 0. 0. 0. 0. 15. 2. 0. 0. 0. 0. 0. 0. 0. 0. 0. 0. 0.
      0. 0. 0. 0. 0. 0. 0. 0. 0. 0. 0. 2. 0. 0. 0. 0. 0. 0. 0. 0. 0. 0.
      0. 0. 8. 0. 4. 0. 0. 0. 0. 0. 0. 0. 0. 0. 0. 0. 1. 0. 0. 0. 0. 0.
      0. 0. 0. 2. 0. 0. 0. 1. 0. 0. 0. 0. 0. 0. 4. 0. 4. 0. 0. 0. 0. 3.
      0. 0. 0. 1. 0. 0. 0. 0. 3. 0. 0. 0. 0. 0. 0. 0. 0. 0. 0. 0. 0. 0.
      0. 0. 0. 0. 0. 0. 0. 0. 0. 0. 0. 0. 0. 4. 0. 2. 0. 0. 0. 0. 0. 0.
      0. 0. 0. 0. 0. 0. 0. 0. 0. 0. 0. 0. 0. 0. 0. 0. 0. 0. 0. 0. 0. 0.
      2. 0. 0. 0. 0. 4. 0. 0. 0. 0. 0. 0. 0. 0. 2. 0. 0. 0. 0. 0. 0. 0.
      0. 0. 0. 0. 0. 1. 0. 2. 0. 0. 0. 0. 0. 0. 0. 0. 0. 0. 0. 3. 0. 0.
      0. 0. 0. 0. 0. 0. 2. 0. 0. 0. 1. 0. 0. 0. 0. 1. 0. 0. 0. 2. 0. 0.
      0. 0. 0. 0. 0. 0. 0. 0. 0. 0. 0. 3. 0. 0. 0. 0. 0. 0. 0. 0. 6. 0.
      2. 0. 0. 0. 0. 0. 0. 0. 0. 0. 0. 0. 0. 0. 0. 0.</_>
    <_>
      0. 0. 0. 0. 0. 0. 0. 0. 0. 0. 0. 0. 0. 0. 0. 0. 0. 0. 2. 0. 4. 0.
      12. 0. 0. 0. 0. 3. 0. 0. 0. 2. 0. 0. 8. 0. 0. 0. 12. 0. 1. 0. 0.
      0. 0. 0. 0. 0. 0. 0. 0. 0. 0. 0. 0. 0. 0. 9. 4. 0. 0. 0. 0. 2. 0.
      0. 0. 1. 0. 0. 0. 0. 0. 0. 0. 6. 6. 0. 0. 4. 0. 0. 0. 0. 0. 0. 0.
      0. 0. 0. 0. 0. 0. 10. 0. 0. 0. 0. 0. 0. 0. 0. 0. 1. 0. 0. 0. 0. 0.
      9. 4. 0. 0. 0. 0. 0. 0. 0. 0. 0. 0. 0. 0. 0. 0. 0. 0. 0. 8. 0. 0.
      0. 0. 0. 0. 0. 0. 0. 0. 2. 0. 0. 0. 0. 0. 0. 0. 0. 0. 0. 0. 0. 0.
      0. 0. 0. 0. 0. 0. 0. 0. 0. 0. 0. 0. 7. 0. 0. 0. 0. 0. 2. 0. 0. 0.
      1. 0. 2. 0. 0. 0. 0. 4. 0. 0. 0. 0. 0. 0. 0. 0. 0. 0. 0. 0. 0. 0.
      0. 0. 0. 0. 0. 0. 0. 0. 0. 0. 1. 0. 0. 0. 1. 0. 6. 0. 0. 0. 0. 2.
      0. 2. 0. 0. 0. 0. 0. 0. 0. 0. 0. 0. 0. 0. 0. 0. 0. 0. 0. 0. 0. 0.
      0. 0. 2. 0. 0. 0. 0. 0. 0. 0. 0. 0. 0. 0. 0. 3. 0. 0. 0. 0. 0. 0.
      0. 0. 0. 0. 0. 0. 0. 2. 0. 0. 0. 0. 0. 0. 0. 0. 0. 0. 0. 0. 0. 0.
      0. 0. 0. 0. 0. 0. 0. 2. 0. 0. 12. 0. 2. 0. 0. 0. 0. 0. 0. 0. 0. 0.
      0. 0. 0. 0. 0. 0. 0. 0. 1. 0. 0. 0. 0. 0. 0. 0. 0. 0. 0. 0. 0. 0.
      0. 0. 29. 0. 0. 0. 0. 0. 0. 0. 0. 0. 0. 0. 0. 0. 0. 3. 0. 0. 0. 0.
      1. 0. 0. 0. 0. 0. 0. 0. 0. 131. 346. 986. 476. 688. 181. 0. 0. 0.
      0. 0. 0. 0. 0. 0. 0. 397. 426. 640. 0. 0. 0. 0. 119. 0. 94. 362.
      422. 97. 0. 0. 0. 0. 0. 94. 0. 0. 0. 0. 0. 0. 0. 0. 0. 0. 0. 0. 0.
      0. 0. 0. 0. 0. 0. 0. 0. 0. 0. 0. 0. 0. 0. 0. 0. 0. 0. 0. 0. 0. 0.
      0. 0. 0. 0. 0. 0. 0. 0. 0. 0. 0. 0. 0. 0. 0. 0. 0. 0. 0. 0. 0. 0.
      0. 0. 0. 0. 0. 0. 0. 0. 0. 0. 0. 0. 0. 0. 0. 0. 0. 0. 0. 0. 0. 0.
      0. 0. 0. 0. 0. 0. 0. 0. 0. 0. 0. 0. 0. 0. 0. 0. 0. 0. 0. 0. 0. 0.
      0. 0. 0. 0. 0. 0. 0. 0. 0. 0. 0. 0. 0. 0. 0. 0. 0. 0. 0. 0. 0. 0.
      0. 0. 0. 0. 0. 0. 0. 0. 0. 0. 0. 0. 0. 0. 0. 0. 0. 0. 0. 0. 0. 0.
      0. 0. 0. 0. 0. 0. 0. 0. 0. 0. 0. 0. 0. 0. 210. 0. 81. 218. 139. 0.
      30. 0. 16. 15. 0. 0. 0. 0. 0. 0. 7. 0. 0. 0. 0. 0. 0. 0. 0. 0. 0.
      0. 0. 0. 0. 0. 0. 0. 0. 0. 0. 0. 0. 128. 9. 4. 0. 0. 69. 128. 25.
      18. 0. 0. 0. 0. 28. 0. 0. 0. 0. 0. 0. 0. 0. 0. 0. 0. 0. 0. 0. 0.
      0. 0. 0. 0. 0. 0. 0. 96. 0. 0. 0. 6. 8. 6. 0. 3. 0. 103. 57. 18.
      7. 0. 0. 0. 0. 0. 0. 0. 0. 0. 0. 0. 0. 0. 0. 0. 0. 0. 0. 0. 0. 0.
      0. 53. 0. 0. 0. 0. 0. 0. 0. 8. 0. 34. 52. 109. 74. 0. 0. 0. 0. 0.
      1. 0. 0. 0. 5. 0. 8. 4. 145. 3. 4. 16. 10. 23. 0. 0. 0. 0. 42. 0.
      0. 17. 0. 0. 0. 0. 0. 38. 0. 0. 0. 0. 0. 0. 0. 0.</_>
    <_>
      0. 0. 0. 0. 0. 0. 0. 0. 0. 0. 0. 0. 0. 7. 9. 225. 187. 28. 61. 11.
      0. 0. 0. 0. 0. 0. 0. 0. 0. 0. 0. 7. 50. 0. 0. 0. 0. 0. 0. 0. 0. 0.
      0. 0. 0. 0. 0. 0. 0. 0. 0. 0. 219. 205. 66. 0. 0. 0. 0. 0. 0. 0.
      0. 0. 0. 0. 0. 0. 0. 0. 0. 0. 17. 0. 0. 9. 0. 0. 0. 0. 0. 0. 0. 0.
      0. 0. 0. 0. 0. 0. 33. 52. 254. 31. 17. 81. 55. 12. 0. 8. 4. 0. 25.
      26. 23. 17. 49. 6. 54. 0. 0. 0. 0. 0. 0. 0. 0. 0. 0. 0. 0. 0. 0.
      0. 0. 0. 0. 0. 0. 0. 80. 62. 150. 36. 72. 157. 92. 76. 52. 0. 0.
      0. 0. 0. 0. 0. 0. 0. 0. 0. 0. 16. 18. 0. 0. 0. 0. 0. 0. 0. 0. 37.
      29. 89. 51. 41. 7. 117. 109. 12. 22. 143. 107. 4. 0. 0. 0. 0. 0.
      0. 0. 0. 6. 0. 0. 3. 0. 0. 0. 10. 0. 0. 10. 0. 0. 0. 0. 0. 60. 91.
      68. 36. 0. 0. 0. 0. 0. 4. 46. 0. 0. 0. 0. 0. 0. 0. 4. 7. 8. 3. 8.
      0. 8. 0. 0. 1. 18. 0. 0. 2. 0. 44. 62. 26. 105. 0. 0. 0. 17. 0. 0.
      0. 0. 0. 0. 26. 6. 0. 0. 0. 0. 0. 23. 29. 0. 0. 5. 0. 0. 0. 0. 4.
      0. 0. 0. 5. 11. 19. 15. 0. 0. 0. 0. 0. 0. 0. 0. 6. 0. 0. 0. 0. 15.
      1. 0. 0. 11. 0. 0. 0. 0. 0. 0. 0. 0. 0. 0. 0. 0. 0. 0. 0. 0. 0. 0.
      0. 0. 0. 0. 0. 0. 0. 0. 0. 0. 0. 0. 0. 0. 0. 0. 0. 0. 0. 0. 0. 0.
      0. 0. 0. 0. 0. 0. 0. 0. 0. 0. 0. 0. 0. 0. 0. 0. 0. 0. 0. 0. 0. 0.
      0. 0. 0. 0. 0. 0. 0. 0. 0. 24. 0. 0. 52. 0. 0. 0. 0. 0. 0. 0. 0.
      0. 0. 0. 0. 0. 0. 0. 0. 0. 0. 0. 0. 0. 0. 0. 0. 0. 0. 0. 0. 0. 0.
      0. 0. 0. 0. 0. 0. 0. 0. 0. 0. 0. 0. 0. 0. 0. 0. 0. 0. 0. 0. 0. 0.
      0. 0. 0. 0. 0. 0. 0. 0. 0. 0. 0. 0. 0. 0. 0. 0. 0. 7. 0. 0. 0. 0.
      0. 0. 2. 0. 0. 2. 0. 0. 0. 3. 18. 12. 7. 0. 91. 6. 8. 0. 0. 0. 0.
      0. 0. 2. 0. 0. 0. 1. 0. 0. 0. 0. 0. 0. 0. 0. 0. 0. 0. 0. 0. 0. 0.
      0. 0. 0. 9. 35. 76. 46. 179. 22. 0. 0. 0. 3. 0. 0. 0. 0. 0. 0. 0.
      0. 0. 0. 0. 0. 0. 0. 0. 0. 0. 0. 6. 10. 18. 358. 278. 14. 12. 6.
      30. 25. 87. 8. 27. 15. 0. 0. 0. 7. 0. 0. 0. 0. 0. 0. 0. 0. 0. 0.
      0. 96. 0. 0. 10. 5. 4. 37. 12. 19. 0. 22. 3. 0. 0. 0. 0. 0. 0. 0.
      0. 3. 4. 0. 0. 0. 0. 0. 0. 0. 0. 0. 0. 0. 0. 0. 0. 0. 4. 9. 31.
      48. 76. 3. 0. 12. 0. 1. 0. 0. 0. 0. 0. 0. 0. 0. 3. 0. 0. 0. 0. 0.
      0. 0. 0. 13. 0. 0. 0. 0. 0. 0. 0. 0. 94. 77. 92. 0. 14. 17. 0. 0.
      0. 0. 0. 0. 0. 0. 0. 0. 0. 0. 0. 0. 0. 0. 0. 0. 0. 0. 0. 0. 0. 2.
      0. 0. 0. 0. 9. 0. 0. 5. 0. 0. 0. 0. 0. 0. 0. 0. 0. 0. 0. 0. 0. 0.
      0. 0. 0. 0. 0. 0. 0. 0. 0. 0. 0. 0. 4. 4. 0. 23. 5. 63. 18. 19. 0.
      0. 2. 0. 1. 0. 0. 0. 0. 0. 0. 0. 0. 0. 0. 0. 0. 0. 0. 0. 0. 0. 0.
      0. 0. 0. 0. 5. 5. 0. 52. 2. 31. 2. 3. 0.</_>
    <_>
      17. 0. 0. 0. 0. 0. 0. 0. 0. 5. 0. 0. 0. 1. 5. 4. 0. 0. 0. 0. 0. 0.
      9. 0. 0. 0. 0. 13. 0. 0. 0. 2. 3. 21. 23. 0. 0. 0. 0. 0. 0. 0. 0.
      0. 0. 2. 15. 32. 95. 17. 26. 39. 18. 0. 0. 0. 0. 0. 0. 0. 0. 0. 0.
      0. 0. 0. 8. 0. 0. 0. 0. 0. 0. 0. 0. 0. 0. 0. 0. 0. 0. 5. 0. 0. 27.
      236. 7. 0. 0. 0. 0. 0. 0. 0. 0. 0. 0. 0. 0. 0. 0. 4. 0. 0. 0. 0.
      0. 0. 0. 0. 0. 0. 0. 0. 0. 0. 0. 0. 0. 4. 5. 26. 123. 142. 0. 0.
      0. 0. 0. 0. 2. 0. 0. 0. 0. 0. 0. 0. 0. 0. 0. 0. 0. 0. 0. 0. 0. 0.
      0. 0. 0. 0. 0. 0. 0. 0. 0. 0. 0. 30. 306. 35. 0. 0. 0. 0. 0. 0. 0.
      0. 0. 0. 0. 0. 0. 0. 0. 0. 0. 0. 0. 0. 0. 0. 0. 0. 0. 0. 0. 0. 0.
      0. 0. 0. 0. 30. 203. 159. 40. 20. 0. 0. 0. 0. 0. 0. 0. 0. 0. 0. 0.
      0. 0. 0. 0. 0. 0. 0. 0. 0. 0. 0. 0. 0. 0. 0. 0. 0. 0. 0. 0. 0. 48.
      122. 14. 0. 0. 0. 0. 0. 0. 0. 0. 0. 0. 0. 0. 0. 0. 0. 0. 0. 0. 0.
      0. 0. 0. 0. 0. 0. 0. 0. 0. 0. 0. 0. 0. 2. 5. 0. 143. 49. 0. 0. 0.
      0. 0. 0. 0. 0. 0. 0. 0. 0. 0. 0. 0. 0. 0. 0. 0. 0. 0. 0. 0. 0. 0.
      0. 0. 0. 0. 0. 0. 0. 0. 0. 0. 3. 4. 9. 6. 6. 26. 6. 0. 22. 0. 6.
      0. 0. 0. 0. 0. 0. 35. 0. 0. 0. 0. 0. 0. 0. 0. 1. 0. 0. 0. 1. 0. 0.
      12. 0. 0. 3. 0. 0. 2. 0. 0. 3. 0. 12. 3. 0. 3. 5. 5. 5. 28. 0. 57.
      0. 0. 0. 0. 0. 6. 3. 0. 0. 0. 0. 8. 13. 18. 2. 0. 0. 0. 0. 4. 0.
      20. 0. 5. 0. 0. 2. 6. 0. 0. 0. 0. 4. 19. 0. 0. 0. 12. 0. 14. 6. 8.
      3. 0. 2. 0. 0. 0. 8. 0. 0. 0. 0. 3. 0. 6. 5. 4. 15. 0. 0. 0. 0. 0.
      0. 0. 0. 0. 0. 6. 0. 15. 0. 0. 0. 1. 0. 0. 0. 0. 6. 0. 0. 0. 6. 0.
      0. 0. 0. 0. 0. 0. 0. 1. 6. 0. 6. 0. 0. 0. 0. 0. 0. 0. 0. 0. 0. 0.
      0. 2. 0. 0. 0. 0. 0. 0. 0. 0. 0. 0. 0. 0. 4. 0. 0. 0. 0. 0. 0. 0.
      0. 0. 0. 0. 0. 0. 0. 0. 0. 0. 0. 0. 0. 0. 0. 0. 0. 0. 0. 0. 0. 0.
      0. 0. 0. 0. 0. 0. 0. 0. 0. 0. 0. 0. 0. 2. 0. 6. 0. 0. 2. 0. 0. 0.
      0. 0. 0. 0. 0. 4. 0. 0. 0. 0. 0. 2. 0. 0. 0. 0. 0. 0. 0. 0. 0. 0.
      0. 0. 0. 0. 0. 0. 0. 11. 13. 7. 8. 0. 0. 0. 0. 0. 4. 0. 0. 15. 0.
      0. 0. 0. 0. 0. 0. 0. 0. 0. 0. 0. 0. 0. 2. 9. 0. 29. 0. 0. 0. 0. 0.
      0. 0. 0. 20. 0. 14. 0. 0. 0. 0. 0. 0. 4. 0. 0. 0. 0. 0. 0. 0. 0.
      0. 0. 0. 0. 0. 0. 6. 24. 0. 22. 0. 0. 0. 0. 0. 2. 0. 0. 8. 0. 2.
      15. 16. 0. 8. 0. 0. 0. 0. 0. 0. 0. 0. 0. 0. 0. 0. 4. 0. 0. 0. 0.
      0. 9. 0. 56. 0. 10. 0. 0. 0. 16. 0. 0. 8. 0. 0. 0. 0. 0. 0. 0. 0.
      0. 0. 2. 0. 0. 0. 2. 0. 0. 0. 0. 0. 0. 0. 0. 0. 0. 0. 0. 0. 0. 0.
      0. 0. 0. 0. 0. 0. 0. 0. 0. 0. 0. 0. 0. 0.</_>
    <_>
      12. 0. 0. 0. 0. 0. 0. 0. 0. 0. 0. 0. 0. 0. 0. 0. 0. 0. 0. 0. 0. 0.
      0. 0. 0. 0. 0. 0. 0. 0. 0. 0. 0. 2. 0. 0. 0. 0. 0. 0. 0. 0. 0. 0.
      0. 3. 0. 0. 0. 0. 0. 0. 0. 0. 1. 0. 0. 0. 0. 0. 0. 0. 0. 0. 0. 0.
      0. 0. 0. 0. 0. 0. 0. 0. 0. 0. 0. 0. 0. 0. 0. 0. 0. 0. 0. 0. 0. 0.
      0. 0. 2. 0. 0. 0. 0. 0. 0. 0. 0. 0. 0. 0. 0. 0. 0. 0. 0. 0. 0. 0.
      0. 0. 0. 0. 0. 0. 0. 0. 0. 0. 0. 0. 0. 0. 0. 0. 0. 0. 0. 0. 11. 0.
      0. 3. 0. 16. 0. 0. 0. 0. 0. 0. 0. 0. 4. 0. 2. 0. 8. 0. 0. 0. 0. 0.
      0. 0. 0. 0. 0. 0. 0. 0. 0. 0. 6. 0. 6. 0. 8. 0. 0. 16. 3. 6. 0. 0.
      0. 8. 0. 0. 21. 6. 0. 0. 4. 0. 0. 0. 0. 0. 0. 0. 0. 0. 0. 0. 0. 0.
      0. 0. 0. 0. 2. 0. 0. 20. 0. 14. 0. 0. 0. 7. 0. 0. 0. 0. 30. 5. 0.
      0. 5. 9. 5. 0. 0. 0. 0. 0. 0. 0. 0. 0. 0. 0. 0. 0. 0. 0. 0. 0. 0.
      0. 0. 15. 42. 13. 3. 10. 12. 0. 48. 6. 50. 6. 0. 0. 0. 0. 14. 6.
      0. 0. 0. 0. 0. 0. 0. 0. 0. 0. 0. 0. 0. 0. 0. 0. 0. 0. 0. 0. 0. 0.
      3. 16. 33. 115. 21. 6. 78. 16. 0. 0. 0. 0. 0. 0. 0. 6. 9. 34. 0.
      0. 0. 2. 0. 0. 0. 0. 0. 0. 0. 0. 0. 23. 32. 41. 20. 24. 11. 0. 14.
      7. 9. 18. 0. 0. 0. 0. 0. 0. 0. 0. 0. 0. 0. 0. 0. 0. 26. 0. 0. 0.
      0. 5. 14. 5. 4. 0. 2. 4. 0. 2. 12. 4. 0. 0. 0. 0. 0. 0. 0. 13. 0.
      0. 0. 0. 0. 0. 0. 0. 0. 0. 63. 31. 0. 26. 0. 0. 1. 18. 0. 0. 0. 3.
      0. 23. 0. 16. 0. 0. 0. 0. 0. 0. 0. 0. 0. 96. 2. 0. 18. 31. 0. 19.
      0. 0. 37. 13. 0. 92. 10. 20. 22. 15. 0. 6. 0. 27. 7. 31. 34. 16.
      0. 8. 0. 0. 0. 0. 0. 0. 0. 0. 0. 0. 0. 0. 0. 0. 0. 0. 0. 0. 78. 0.
      31. 0. 0. 0. 0. 0. 223. 0. 161. 19. 111. 68. 49. 39. 52. 181. 10.
      25. 31. 26. 0. 0. 0. 0. 0. 0. 0. 0. 0. 0. 0. 0. 0. 0. 0. 0. 0. 0.
      0. 0. 0. 0. 0. 0. 0. 0. 0. 0. 0. 0. 0. 0. 0. 0. 0. 0. 0. 0. 6. 0.
      361. 30. 89. 0. 0. 0. 0. 0. 0. 0. 0. 0. 0. 0. 0. 0. 0. 0. 0. 0. 0.
      32. 0. 0. 0. 0. 17. 0. 0. 0. 0. 0. 0. 0. 0. 122. 0. 33. 154. 0. 0.
      0. 0. 0. 0. 0. 0. 2. 0. 2. 6. 0. 0. 0. 3. 0. 0. 0. 0. 0. 0. 0. 0.
      0. 0. 0. 0. 1. 0. 6. 0. 0. 0. 0. 0. 0. 0. 0. 0. 0. 0. 0. 0. 0. 0.
      0. 0. 0. 0. 0. 0. 0. 0. 0. 0. 0. 0. 0. 0. 0. 0. 0. 0. 0. 0. 0. 0.
      0. 0. 0. 0. 0. 0. 0. 0. 0. 0. 0. 0. 0. 0. 0. 0. 0. 0. 0. 0. 0. 0.
      0. 0. 0. 0. 0. 0. 0. 0. 0. 0. 0. 0. 0. 0. 0. 0. 0. 12. 5. 18. 10.
      0. 8. 0. 1. 0. 0. 0. 0. 0. 10. 0. 13. 100. 0. 0. 0. 0. 0. 0. 0. 0.
      0. 0. 0. 0. 0. 0. 0. 0. 0. 20. 0. 0. 0. 0. 6. 0. 0. 0. 0. 0. 0. 0.
      0. 0. 0. 0. 0. 113. 0. 6. 0. 0. 0. 0. 0. 0. 1. 0. 0. 0. 0. 0. 0.
      8. 10.</_>
    <_>
      0. 123. 0. 0. 33. 56. 8. 16. 0. 0. 0. 0. 0. 0. 0. 0. 0. 0. 0. 0.
      0. 0. 0. 0. 0. 0. 0. 0. 0. 0. 0. 0. 0. 17. 0. 47. 168. 0. 0. 0. 0.
      21. 10. 22. 24. 67. 62. 0. 0. 0. 0. 0. 0. 0. 11. 0. 0. 0. 0. 0. 0.
      0. 0. 0. 0. 0. 0. 0. 0. 74. 0. 0. 8. 0. 12. 30. 8. 0. 0. 0. 0. 41.
      0. 0. 58. 16. 18. 0. 0. 0. 0. 0. 0. 0. 0. 0. 0. 0. 0. 0. 0. 0. 0.
      0. 10. 5. 0. 0. 0. 0. 0. 0. 0. 0. 0. 0. 0. 13. 0. 137. 100. 37. 0.
      27. 62. 0. 65. 14. 19. 32. 9. 0. 0. 0. 0. 0. 0. 0. 0. 0. 0. 0. 0.
      0. 0. 0. 0. 0. 0. 0. 0. 0. 0. 0. 0. 0. 0. 0. 0. 0. 98. 45. 31. 91.
      122. 110. 27. 0. 0. 0. 0. 0. 0. 0. 0. 0. 0. 0. 0. 0. 0. 0. 0. 0.
      0. 0. 0. 0. 0. 0. 0. 0. 0. 0. 0. 0. 0. 0. 0. 68. 10. 0. 0. 0. 0.
      0. 0. 0. 0. 0. 0. 0. 0. 0. 0. 0. 0. 0. 0. 0. 0. 0. 0. 0. 0. 0. 0.
      0. 0. 0. 0. 0. 0. 0. 0. 0. 0. 0. 0. 0. 0. 0. 0. 0. 0. 0. 0. 0. 0.
      0. 0. 0. 0. 0. 0. 0. 0. 0. 0. 0. 0. 0. 0. 0. 0. 0. 0. 0. 0. 0. 0.
      0. 0. 0. 0. 0. 0. 0. 0. 0. 0. 0. 0. 0. 0. 0. 0. 0. 0. 0. 0. 0. 0.
      0. 0. 0. 0. 0. 0. 0. 0. 0. 0. 0. 0. 0. 0. 0. 0. 0. 0. 0. 0. 0. 0.
      0. 0. 0. 0. 0. 0. 0. 0. 0. 0. 0. 0. 5. 44. 109. 9. 5. 0. 0. 0. 2.
      0. 5. 0. 0. 0. 0. 0. 0. 0. 0. 0. 0. 0. 0. 0. 0. 0. 0. 0. 0. 0. 0.
      0. 0. 0. 8. 8. 47. 102. 37. 0. 0. 0. 5. 0. 2. 0. 2. 0. 8. 3. 0. 0.
      0. 0. 0. 0. 0. 0. 0. 0. 0. 0. 0. 0. 0. 0. 0. 0. 0. 0. 0. 0. 0. 74.
      18. 28. 21. 0. 13. 3. 0. 0. 1. 0. 2. 12. 25. 59. 0. 0. 0. 0. 0. 0.
      0. 0. 0. 0. 0. 0. 0. 0. 0. 0. 0. 0. 0. 0. 0. 0. 0. 0. 0. 6. 11.
      12. 0. 3. 12. 22. 20. 18. 36. 79. 3. 0. 0. 0. 0. 0. 0. 0. 0. 0. 0.
      0. 0. 0. 0. 0. 0. 0. 0. 0. 0. 0. 0. 0. 0. 0. 0. 0. 0. 0. 0. 0. 0.
      0. 0. 103. 65. 63. 0. 56. 0. 0. 0. 0. 1. 0. 0. 0. 0. 0. 0. 0. 0.
      2. 0. 0. 0. 0. 0. 0. 0. 0. 1. 4. 0. 0. 0. 0. 0. 0. 8. 0. 0. 56.
      12. 10. 3. 2. 0. 0. 1. 0. 0. 0. 0. 0. 0. 0. 0. 1. 0. 0. 0. 0. 0.
      0. 0. 0. 3. 0. 0. 0. 0. 0. 0. 0. 0. 4. 6. 14. 21. 18. 17. 4. 0. 0.
      0. 0. 0. 0. 0. 0. 0. 0. 0. 0. 0. 0. 0. 0. 0. 0. 0. 0. 0. 0. 0. 0.
      0. 0. 0. 0. 0. 0. 4. 14. 5. 8. 0. 0. 0. 0. 0. 0. 0. 0. 0. 0. 0. 0.
      0. 0. 0. 0. 0. 0. 0. 0. 0. 0. 0. 0. 0. 0. 0. 0. 0. 0. 0. 4. 4. 34.
      0. 0. 0. 0. 0. 0. 0. 0. 0. 0. 0. 0. 0. 0. 0. 0. 0. 0. 0. 0. 0. 0.
      0. 0. 0. 0. 0. 0. 0. 0. 0. 0. 0. 0. 0. 8. 11. 3. 0. 0. 0. 0. 1. 0.
      0. 0. 0. 0. 0. 0. 0. 1. 0. 0. 0. 0. 0. 0. 0. 0. 0. 0. 0. 0. 0. 0.
      0. 0. 0. 0. 0. 0. 0. 0. 0. 0. 28. 0. 16. 0. 0. 0. 0. 0. 0. 0. 0.</_>
    <_>
      0. 0. 0. 0. 0. 0. 0. 0. 0. 0. 0. 0. 0. 0. 0. 0. 0. 0. 0. 0. 0. 0.
      0. 0. 2. 4. 0. 2. 0. 0. 0. 0. 0. 0. 0. 0. 0. 0. 0. 0. 0. 0. 0. 0.
      0. 0. 0. 0. 0. 0. 0. 0. 0. 0. 1. 0. 0. 0. 10. 0. 0. 0. 0. 1. 0. 0.
      0. 0. 0. 0. 0. 0. 0. 0. 0. 0. 0. 0. 0. 0. 0. 0. 0. 0. 0. 0. 0. 0.
      0. 0. 10. 0. 0. 0. 0. 0. 0. 0. 0. 0. 0. 0. 0. 0. 0. 0. 0. 0. 0. 4.
      0. 0. 0. 5. 0. 3. 0. 5. 6. 0. 0. 3. 3. 2. 6. 0. 42. 0. 4. 0. 3. 0.
      0. 0. 0. 2. 0. 0. 0. 0. 0. 0. 0. 0. 0. 0. 0. 5. 0. 0. 7. 7. 0. 6.
      0. 0. 0. 0. 0. 0. 8. 0. 43. 0. 4. 0. 0. 0. 0. 0. 0. 0. 0. 0. 0. 0.
      0. 0. 0. 0. 0. 0. 0. 0. 0. 0. 0. 6. 0. 13. 0. 2. 0. 0. 0. 2. 11.
      0. 41. 23. 9. 0. 0. 0. 0. 0. 0. 0. 0. 0. 0. 0. 0. 0. 0. 0. 21. 4.
      0. 0. 0. 0. 0. 0. 0. 0. 4. 2. 0. 3. 0. 2. 0. 0. 0. 23. 43. 0. 0.
      0. 0. 0. 0. 0. 0. 0. 0. 1. 0. 2. 0. 0. 0. 0. 6. 0. 0. 0. 0. 0. 0.
      0. 0. 0. 0. 0. 0. 0. 0. 51. 33. 0. 91. 7. 0. 0. 0. 0. 0. 0. 0. 0.
      0. 0. 0. 0. 0. 0. 0. 0. 0. 0. 16. 0. 0. 0. 0. 0. 0. 0. 0. 0. 0. 0.
      0. 0. 116. 198. 0. 0. 0. 0. 0. 0. 0. 0. 0. 0. 0. 0. 0. 0. 0. 0. 0.
      0. 0. 113. 0. 0. 0. 0. 0. 0. 0. 0. 0. 0. 0. 0. 0. 13. 65. 121. 88.
      0. 0. 0. 0. 0. 0. 0. 0. 0. 0. 0. 0. 0. 0. 0. 0. 0. 0. 0. 0. 0. 0.
      0. 0. 0. 0. 0. 0. 0. 0. 0. 0. 0. 43. 88. 0. 13. 0. 0. 0. 0. 0. 0.
      0. 0. 0. 0. 0. 0. 0. 0. 0. 0. 0. 0. 11. 10. 0. 0. 0. 0. 0. 0. 0.
      0. 0. 0. 0. 0. 0. 77. 0. 54. 0. 13. 6. 0. 0. 32. 0. 0. 0. 17. 13.
      0. 0. 0. 0. 0. 0. 0. 0. 0. 0. 0. 0. 0. 0. 0. 0. 0. 0. 0. 0. 0. 0.
      0. 0. 110. 72. 56. 0. 28. 40. 20. 9. 0. 0. 0. 0. 0. 0. 0. 0. 0. 0.
      0. 0. 0. 0. 0. 0. 0. 0. 0. 0. 0. 0. 0. 0. 0. 0. 0. 0. 0. 0. 61.
      44. 0. 0. 0. 0. 0. 53. 0. 0. 0. 0. 0. 0. 0. 0. 0. 0. 0. 0. 0. 0.
      0. 0. 0. 0. 0. 0. 0. 0. 0. 0. 0. 0. 0. 0. 0. 0. 116. 0. 13. 0. 9.
      0. 0. 0. 0. 0. 0. 0. 0. 0. 0. 0. 0. 62. 62. 0. 0. 116. 0. 0. 0. 0.
      0. 0. 0. 0. 0. 0. 57. 0. 0. 0. 0. 0. 0. 0. 0. 0. 0. 97. 40. 0. 0.
      1. 0. 0. 0. 0. 0. 0. 0. 0. 0. 0. 0. 0. 1. 0. 0. 0. 0. 0. 0. 0. 0.
      0. 0. 0. 0. 0. 0. 0. 0. 0. 0. 0. 0. 0. 0. 4. 0. 0. 0. 0. 0. 0. 0.
      0. 0. 0. 0. 0. 0. 0. 0. 0. 0. 0. 0. 0. 0. 0. 0. 0. 0. 0. 0. 5. 0.
      0. 1. 0. 0. 0. 0. 5. 0. 0. 0. 1. 0. 0. 0. 0. 0. 0. 0. 0. 0. 0. 0.
      0. 0. 0. 0. 0. 0. 0. 0. 0. 0. 0. 0. 0. 0. 0. 0. 0. 0. 0. 0. 7. 0.
      2. 0. 0. 0. 0. 0. 0. 0. 0. 0. 0. 0. 0. 0. 0. 0. 0. 0. 0. 0. 0. 0.
      0. 0. 0. 0. 0. 0. 0. 0. 0. 0. 0. 0.</_>
    <_>
      2. 0. 2. 0. 0. 0. 0. 0. 0. 0. 0. 0. 0. 0. 0. 0. 0. 0. 0. 0. 0. 0.
      0. 0. 0. 0. 0. 0. 0. 0. 0. 0. 0. 0. 0. 0. 7. 0. 0. 0. 0. 0. 0. 0.
      0. 0. 0. 0. 0. 0. 0. 0. 0. 0. 0. 0. 0. 0. 0. 0. 0. 0. 0. 0. 0. 0.
      0. 0. 0. 0. 0. 0. 7. 0. 2. 0. 0. 0. 0. 0. 0. 0. 0. 0. 0. 0. 0. 0.
      0. 0. 0. 0. 0. 0. 0. 0. 0. 0. 0. 0. 0. 0. 0. 0. 0. 0. 0. 0. 38.
      29. 0. 0. 0. 0. 0. 0. 0. 0. 0. 0. 0. 0. 0. 0. 0. 0. 0. 0. 0. 0. 0.
      0. 0. 0. 0. 0. 0. 0. 0. 0. 0. 2. 4. 0. 121. 54. 0. 0. 0. 0. 0. 0.
      0. 0. 0. 0. 0. 0. 0. 0. 0. 0. 0. 0. 0. 0. 0. 0. 0. 0. 0. 0. 0. 0.
      0. 0. 0. 0. 0. 0. 145. 75. 0. 0. 0. 0. 0. 0. 0. 0. 0. 0. 0. 0. 0.
      0. 0. 0. 0. 0. 0. 0. 0. 0. 0. 0. 0. 0. 0. 0. 0. 0. 0. 0. 0. 0.
      151. 46. 0. 0. 0. 0. 0. 0. 0. 0. 0. 0. 0. 1. 0. 0. 0. 0. 0. 0. 0.
      0. 0. 0. 0. 0. 0. 0. 0. 0. 0. 0. 14. 8. 7. 0. 122. 60. 0. 0. 0. 0.
      0. 0. 0. 6. 0. 0. 0. 0. 0. 0. 0. 0. 0. 0. 0. 0. 0. 0. 0. 0. 0. 0.
      0. 0. 0. 0. 0. 7. 16. 17. 177. 66. 0. 13. 0. 0. 0. 5. 0. 0. 0. 0.
      0. 0. 0. 0. 0. 0. 0. 0. 0. 0. 0. 0. 0. 0. 0. 0. 0. 0. 0. 0. 0. 16.
      9. 18. 234. 34. 0. 0. 0. 0. 8. 0. 18. 0. 0. 0. 0. 0. 0. 0. 0. 0.
      0. 0. 0. 0. 0. 0. 0. 0. 0. 0. 0. 0. 28. 0. 0. 0. 0. 9. 314. 0. 0.
      15. 0. 15. 9. 0. 0. 0. 0. 0. 0. 0. 0. 0. 0. 0. 0. 0. 0. 0. 0. 0.
      0. 0. 0. 0. 0. 0. 0. 0. 12. 0. 0. 0. 333. 30. 15. 0. 0. 0. 0. 0.
      0. 0. 0. 0. 0. 0. 0. 0. 0. 0. 0. 0. 0. 0. 0. 0. 0. 0. 0. 0. 0. 0.
      0. 0. 0. 0. 0. 59. 430. 12. 0. 0. 0. 0. 0. 0. 0. 0. 0. 0. 0. 0. 0.
      0. 0. 0. 0. 0. 0. 0. 0. 0. 0. 0. 0. 0. 0. 0. 0. 0. 0. 0. 0. 82.
      374. 0. 0. 0. 0. 0. 0. 0. 0. 0. 0. 0. 0. 0. 0. 0. 0. 0. 0. 0. 0.
      0. 0. 0. 0. 0. 0. 0. 0. 0. 0. 0. 0. 0. 10. 120. 386. 0. 0. 0. 0.
      0. 0. 0. 0. 0. 0. 0. 0. 0. 0. 0. 0. 0. 0. 0. 0. 0. 0. 0. 0. 0. 0.
      0. 0. 0. 0. 0. 0. 28. 51. 33. 439. 0. 0. 0. 0. 0. 0. 0. 0. 0. 0.
      0. 0. 0. 0. 0. 0. 0. 0. 0. 0. 0. 0. 0. 0. 0. 0. 0. 0. 0. 0. 12.
      50. 0. 13. 131. 251. 0. 0. 0. 0. 0. 0. 0. 0. 0. 0. 0. 0. 0. 0. 0.
      0. 0. 0. 0. 0. 0. 0. 0. 0. 0. 0. 0. 0. 0. 0. 0. 73. 13. 42. 233.
      349. 65. 62. 0. 0. 0. 0. 0. 224. 0. 0. 0. 0. 0. 0. 0. 0. 0. 0. 0.
      0. 0. 0. 0. 0. 0. 0. 0. 0. 0. 0. 0. 0. 0. 0. 99. 298. 0. 0. 0. 0.
      0. 0. 0. 0. 0. 0. 0. 0. 0. 0. 0. 0. 0. 0. 0. 0. 0. 0. 0. 0. 0. 0.
      0. 0. 0. 0. 0. 0. 0. 89. 108. 180. 0. 0. 0. 0. 0. 0. 0. 0. 0. 0.
      0. 0. 0. 0. 0. 0. 0. 0. 0. 0. 0. 0. 0. 0. 0. 0. 0. 0. 0. 0. 0. 0.
      0. 0. 55.</_>
    <_>
      174. 8. 0. 0. 0. 0. 0. 0. 0. 0. 0. 0. 0. 0. 0. 0. 0. 0. 0. 0. 0.
      0. 0. 0. 0. 0. 0. 0. 0. 0. 0. 0. 0. 0. 0. 8. 123. 0. 0. 0. 0. 0.
      0. 0. 0. 0. 0. 0. 0. 0. 0. 0. 0. 0. 0. 0. 0. 0. 0. 0. 0. 0. 0. 0.
      0. 0. 0. 0. 0. 0. 9. 20. 63. 0. 0. 0. 0. 0. 0. 0. 0. 0. 0. 0. 0.
      0. 0. 0. 0. 0. 0. 0. 0. 0. 0. 0. 0. 0. 0. 0. 0. 0. 0. 0. 0. 6. 0.
      31. 30. 5. 0. 0. 0. 0. 0. 0. 0. 0. 0. 0. 0. 0. 0. 0. 0. 0. 0. 0.
      0. 0. 0. 0. 0. 0. 0. 0. 0. 0. 0. 2. 0. 0. 8. 0. 0. 3. 0. 0. 0. 0.
      0. 0. 0. 0. 0. 0. 0. 0. 0. 0. 0. 0. 0. 0. 2. 0. 0. 0. 0. 0. 0. 0.
      0. 0. 0. 0. 0. 0. 3. 0. 0. 15. 0. 0. 0. 0. 0. 0. 0. 0. 0. 0. 0. 0.
      0. 2. 0. 0. 0. 0. 4. 0. 0. 0. 0. 0. 0. 0. 0. 0. 0. 0. 0. 0. 0. 0.
      0. 0. 0. 0. 1. 0. 0. 0. 0. 0. 0. 0. 0. 2. 0. 0. 0. 0. 11. 0. 0. 0.
      0. 0. 0. 0. 0. 0. 0. 0. 0. 0. 0. 0. 0. 0. 0. 0. 0. 0. 0. 0. 0. 0.
      0. 2. 0. 0. 0. 2. 0. 0. 8. 6. 18. 4. 4. 0. 0. 0. 0. 0. 0. 0. 0. 0.
      0. 0. 0. 0. 0. 0. 0. 0. 0. 0. 0. 0. 0. 0. 0. 1. 0. 0. 0. 3. 0. 0.
      3. 0. 10. 0. 10. 5. 0. 0. 0. 0. 0. 0. 0. 0. 0. 0. 0. 0. 0. 0. 0.
      0. 0. 0. 0. 0. 0. 0. 0. 0. 0. 0. 0. 1. 0. 2. 3. 0. 17. 19. 5. 0.
      1. 0. 0. 0. 0. 0. 0. 0. 0. 0. 0. 0. 0. 0. 0. 0. 0. 0. 0. 0. 0. 0.
      0. 0. 0. 0. 0. 0. 0. 4. 5. 18. 20. 5. 0. 0. 1. 0. 0. 0. 0. 0. 0.
      0. 0. 0. 0. 0. 0. 0. 0. 0. 0. 0. 0. 0. 0. 0. 0. 0. 0. 0. 0. 0. 0.
      0. 0. 0. 31. 16. 2. 3. 2. 0. 0. 0. 0. 0. 0. 0. 0. 0. 0. 0. 0. 0.
      0. 0. 0. 0. 0. 0. 0. 0. 0. 0. 0. 0. 0. 0. 0. 0. 0. 0. 19. 27. 0.
      0. 0. 0. 0. 0. 0. 1. 0. 0. 0. 2. 0. 0. 0. 0. 0. 0. 0. 0. 1. 0. 0.
      0. 0. 0. 0. 0. 0. 0. 0. 0. 5. 0. 37. 7. 0. 0. 0. 0. 0. 0. 0. 1. 0.
      0. 0. 0. 0. 0. 0. 0. 0. 0. 0. 0. 0. 0. 0. 0. 0. 0. 0. 0. 0. 0. 0.
      0. 23. 0. 32. 0. 0. 0. 0. 0. 0. 0. 0. 0. 0. 0. 0. 0. 0. 0. 0. 0.
      0. 0. 0. 0. 0. 0. 0. 0. 0. 0. 0. 0. 0. 0. 0. 0. 28. 0. 50. 3. 0.
      0. 1. 0. 0. 0. 0. 0. 0. 0. 0. 0. 0. 0. 0. 0. 0. 0. 0. 0. 0. 0. 0.
      0. 0. 0. 0. 0. 0. 0. 0. 2. 14. 0. 64. 0. 0. 0. 0. 0. 0. 0. 0. 0.
      0. 0. 0. 0. 0. 0. 0. 0. 0. 0. 0. 0. 0. 0. 0. 0. 0. 0. 0. 0. 0. 0.
      0. 0. 13. 0. 57. 0. 6. 0. 0. 0. 0. 0. 0. 0. 0. 0. 0. 0. 0. 0. 0.
      0. 0. 0. 0. 0. 0. 0. 0. 0. 0. 0. 0. 0. 0. 0. 0. 0. 0. 8. 66. 3. 0.
      0. 0. 0. 0. 0. 0. 0. 0. 0. 0. 0. 0. 0. 0. 0. 0. 0. 0. 0. 0. 0. 0.
      0. 0. 0. 0. 0. 0. 10. 10. 0. 0. 0. 51. 9. 0. 0. 0. 0. 0. 0. 0. 0.
      0. 0. 0. 0. 0. 0. 0. 0.</_>
    <_>
      0. 0. 0. 0. 0. 0. 0. 0. 0. 0. 0. 0. 11. 11. 0. 2. 18. 0. 28. 9. 2.
      0. 0. 0. 0. 0. 0. 0. 0. 0. 0. 0. 0. 0. 0. 0. 0. 0. 0. 0. 0. 0. 0.
      0. 0. 0. 0. 0. 0. 0. 8. 4. 7. 0. 36. 8. 0. 0. 0. 0. 0. 0. 0. 0. 0.
      0. 0. 0. 0. 0. 0. 0. 0. 0. 0. 0. 0. 0. 0. 0. 0. 0. 0. 0. 0. 0. 0.
      2. 3. 8. 20. 14. 13. 0. 0. 0. 0. 0. 0. 0. 0. 0. 0. 0. 0. 0. 0. 0.
      0. 0. 0. 0. 0. 0. 0. 0. 0. 0. 0. 0. 0. 0. 0. 0. 3. 6. 63. 11. 0.
      0. 0. 0. 0. 0. 0. 0. 0. 0. 0. 0. 0. 0. 0. 0. 0. 0. 0. 0. 0. 0. 0.
      0. 0. 0. 0. 0. 0. 0. 0. 5. 5. 18. 61. 7. 0. 0. 0. 0. 0. 0. 0. 0.
      0. 0. 0. 0. 0. 0. 0. 0. 0. 0. 0. 0. 0. 0. 0. 0. 0. 0. 0. 0. 0. 0.
      0. 5. 5. 8. 51. 9. 8. 0. 0. 0. 0. 0. 0. 0. 0. 0. 0. 0. 0. 0. 0. 0.
      0. 0. 0. 0. 0. 0. 0. 0. 0. 0. 0. 0. 0. 0. 10. 4. 0. 0. 5. 0. 0.
      10. 9. 0. 0. 0. 0. 0. 0. 0. 0. 0. 0. 0. 0. 0. 0. 0. 0. 0. 0. 0. 0.
      0. 0. 0. 0. 0. 0. 0. 0. 0. 14. 28. 35. 0. 0. 0. 65. 0. 0. 0. 0. 0.
      0. 0. 0. 0. 0. 0. 0. 0. 0. 0. 0. 0. 0. 0. 0. 0. 0. 0. 0. 0. 0. 0.
      5. 0. 20. 20. 30. 0. 0. 43. 20. 0. 0. 0. 0. 0. 0. 0. 0. 0. 0. 0.
      0. 0. 0. 0. 0. 0. 0. 0. 0. 0. 0. 0. 0. 0. 0. 0. 0. 4. 0. 88. 40.
      33. 0. 0. 0. 0. 0. 0. 0. 0. 0. 0. 0. 0. 0. 0. 0. 0. 0. 0. 0. 0. 0.
      0. 0. 0. 0. 0. 0. 0. 0. 0. 0. 0. 5. 38. 84. 31. 0. 0. 0. 0. 0. 0.
      0. 0. 0. 0. 0. 0. 0. 0. 0. 0. 0. 0. 4. 0. 1. 0. 0. 0. 0. 1. 0. 0.
      0. 7. 0. 0. 16. 56. 119. 0. 2. 0. 0. 0. 0. 0. 0. 8. 0. 0. 0. 0. 0.
      0. 0. 0. 0. 0. 0. 0. 0. 0. 0. 0. 0. 0. 0. 0. 0. 0. 24. 17. 71. 14.
      65. 14. 0. 0. 2. 0. 0. 0. 0. 0. 0. 4. 0. 8. 0. 2. 0. 0. 0. 0. 2.
      0. 2. 0. 0. 0. 0. 1. 3. 0. 0. 6. 23. 6. 23. 0. 60. 0. 0. 0. 0. 0.
      0. 0. 0. 0. 0. 0. 0. 0. 0. 0. 0. 0. 0. 0. 0. 5. 12. 0. 0. 0. 0. 0.
      0. 0. 0. 17. 0. 0. 17. 0. 27. 0. 0. 0. 1. 0. 0. 0. 0. 0. 0. 0. 0.
      1. 0. 0. 3. 0. 0. 0. 0. 5. 4. 29. 12. 0. 0. 0. 0. 0. 0. 6. 0. 12.
      0. 0. 6. 0. 0. 0. 0. 0. 0. 0. 0. 13. 0. 4. 0. 0. 0. 0. 0. 0. 0. 0.
      0. 0. 0. 12. 10. 0. 0. 0. 0. 0. 0. 0. 0. 0. 0. 0. 2. 0. 2. 0. 0.
      0. 0. 0. 0. 0. 0. 2. 0. 4. 9. 2. 0. 0. 0. 0. 2. 0. 1. 9. 4. 6. 0.
      3. 0. 0. 0. 0. 0. 0. 0. 0. 19. 0. 2. 0. 1. 0. 0. 0. 0. 2. 3. 0. 0.
      4. 0. 2. 22. 0. 0. 0. 6. 0. 2. 0. 0. 3. 0. 13. 0. 0. 0. 0. 0. 0.
      3. 0. 24. 0. 0. 0. 1. 0. 0. 0. 0. 4. 0. 0. 0. 1. 0. 4. 4. 0. 0. 0.
      0. 0. 6. 5. 12. 31. 0. 0. 0. 0. 0. 1. 0. 0. 0. 0. 14. 0. 2. 0. 0.
      0. 2. 6. 0. 0. 0. 0. 0. 0. 16. 0. 17. 0.</_>
    <_>
      0. 4. 4. 0. 0. 0. 2. 0. 0. 2. 0. 0. 0. 0. 0. 0. 0. 0. 14. 18. 0.
      0. 0. 0. 0. 0. 0. 0. 0. 0. 8. 0. 0. 0. 18. 7. 0. 0. 0. 0. 0. 0. 0.
      0. 0. 2. 0. 0. 0. 10. 3. 2. 18. 0. 17. 0. 0. 0. 0. 0. 0. 0. 0. 0.
      0. 0. 0. 0. 0. 0. 3. 0. 66. 10. 4. 0. 0. 0. 0. 0. 0. 0. 0. 0. 0.
      10. 6. 8. 39. 0. 0. 0. 0. 0. 0. 0. 0. 3. 0. 3. 0. 0. 0. 9. 0. 0.
      18. 9. 92. 0. 2. 0. 0. 0. 0. 0. 0. 0. 0. 2. 0. 0. 0. 2. 27. 0. 0.
      0. 0. 0. 0. 0. 0. 9. 8. 0. 0. 0. 0. 0. 3. 0. 37. 6. 89. 0. 0. 0.
      3. 0. 0. 0. 0. 1. 6. 0. 0. 1. 0. 0. 27. 0. 0. 0. 0. 0. 3. 0. 0. 0.
      15. 2. 0. 0. 0. 1. 0. 0. 15. 12. 52. 13. 0. 0. 2. 0. 0. 0. 0. 1.
      0. 0. 0. 0. 0. 0. 13. 0. 0. 0. 0. 0. 0. 0. 0. 0. 17. 7. 0. 0. 0.
      2. 0. 6. 60. 18. 73. 0. 14. 0. 0. 0. 0. 0. 0. 0. 0. 0. 0. 4. 0. 0.
      0. 0. 0. 0. 0. 0. 0. 0. 0. 0. 0. 7. 0. 10. 0. 4. 12. 33. 8. 28.
      33. 0. 6. 14. 7. 7. 0. 0. 0. 0. 0. 0. 0. 0. 0. 0. 0. 0. 0. 4. 0.
      0. 2. 0. 0. 0. 0. 1. 0. 2. 0. 7. 7. 2. 51. 20. 49. 5. 0. 0. 0. 0.
      0. 0. 0. 4. 0. 0. 0. 4. 0. 0. 6. 0. 0. 12. 0. 0. 0. 0. 0. 0. 0. 0.
      0. 0. 0. 9. 0. 15. 63. 12. 80. 3. 0. 0. 0. 0. 0. 0. 0. 0. 0. 0. 0.
      0. 0. 0. 0. 0. 0. 5. 2. 0. 1. 0. 0. 0. 0. 0. 0. 0. 0. 1. 0. 14.
      46. 45. 111. 10. 0. 10. 5. 0. 0. 0. 0. 0. 0. 0. 0. 2. 0. 2. 3. 0.
      0. 5. 0. 3. 0. 0. 0. 0. 0. 0. 0. 0. 0. 0. 0. 10. 28. 20. 97. 12.
      16. 15. 0. 0. 0. 0. 0. 0. 6. 2. 0. 1. 9. 2. 0. 0. 0. 0. 8. 0. 0.
      0. 0. 0. 0. 0. 0. 0. 5. 0. 6. 9. 18. 7. 68. 15. 5. 0. 0. 0. 0. 0.
      0. 0. 0. 0. 0. 3. 0. 6. 10. 0. 0. 0. 0. 0. 0. 0. 0. 0. 0. 0. 0. 0.
      0. 0. 0. 13. 30. 64. 58. 0. 0. 0. 0. 0. 0. 0. 0. 0. 0. 0. 0. 0. 0.
      0. 0. 0. 0. 3. 8. 0. 4. 0. 0. 0. 0. 0. 0. 0. 0. 0. 10. 22. 73. 59.
      85. 6. 0. 0. 0. 0. 0. 0. 0. 0. 0. 0. 0. 0. 0. 0. 0. 0. 0. 0. 0. 0.
      9. 12. 0. 0. 0. 0. 0. 0. 0. 2. 0. 4. 60. 36. 88. 0. 0. 0. 0. 0. 0.
      0. 0. 0. 0. 0. 0. 0. 0. 0. 0. 0. 0. 10. 6. 3. 0. 0. 0. 0. 0. 1. 0.
      0. 12. 7. 0. 2. 34. 48. 83. 0. 2. 0. 0. 0. 0. 0. 0. 0. 0. 0. 0. 0.
      0. 0. 0. 0. 0. 8. 2. 0. 0. 0. 0. 0. 0. 0. 0. 0. 0. 4. 0. 71. 54.
      30. 68. 25. 0. 0. 0. 0. 0. 0. 0. 2. 0. 0. 0. 1. 0. 0. 0. 0. 0. 0.
      2. 0. 0. 0. 0. 0. 0. 0. 0. 4. 0. 8. 32. 46. 24. 43. 44. 0. 0. 0.
      0. 0. 0. 0. 0. 8. 0. 0. 0. 0. 0. 2. 0. 0. 0. 0. 0. 0. 0. 0. 0. 0.
      0. 2. 0. 8. 0. 5. 0. 10. 25. 12. 38. 0. 2. 0. 3. 0. 0. 0. 0. 0. 0.
      0. 0. 0. 0. 0. 0. 0. 0. 0. 0. 0. 0. 0. 0. 0. 0. 6. 0. 0. 0. 2. 0.
      8. 30. 18.</_>
    <_>
      33. 8. 0. 0. 0. 0. 0. 0. 0. 0. 0. 0. 0. 0. 0. 0. 0. 0. 0. 0. 6. 0.
      2. 0. 10. 0. 0. 2. 6. 6. 0. 2. 5. 19. 41. 0. 83. 12. 0. 0. 0. 0.
      0. 0. 0. 0. 0. 0. 0. 0. 0. 0. 9. 0. 0. 0. 4. 0. 1. 0. 4. 8. 0. 2.
      6. 4. 0. 4. 0. 0. 21. 26. 63. 20. 0. 0. 0. 0. 0. 0. 0. 0. 0. 0. 0.
      0. 0. 0. 12. 7. 0. 15. 0. 0. 1. 0. 0. 0. 0. 1. 6. 0. 0. 1. 0. 0.
      12. 33. 81. 10. 4. 0. 0. 0. 0. 0. 0. 0. 0. 0. 0. 0. 0. 0. 0. 0. 0.
      12. 0. 0. 0. 0. 0. 3. 0. 0. 0. 0. 0. 0. 0. 0. 36. 24. 48. 35. 5.
      0. 0. 5. 10. 0. 0. 0. 0. 0. 0. 0. 10. 0. 0. 0. 0. 0. 2. 0. 2. 0.
      4. 0. 0. 0. 0. 0. 0. 0. 42. 10. 14. 0. 88. 11. 2. 3. 0. 0. 0. 0.
      0. 6. 0. 0. 0. 2. 0. 0. 0. 0. 0. 0. 0. 0. 0. 0. 2. 0. 0. 0. 0. 4.
      0. 1. 0. 44. 5. 42. 66. 17. 0. 0. 0. 0. 0. 10. 0. 23. 0. 0. 0. 0.
      0. 0. 0. 0. 0. 0. 0. 0. 0. 0. 0. 0. 0. 0. 0. 0. 0. 3. 0. 18. 99.
      28. 91. 19. 0. 5. 0. 0. 0. 0. 60. 48. 0. 0. 0. 0. 0. 0. 0. 0. 0.
      0. 0. 0. 0. 0. 0. 0. 0. 0. 0. 0. 0. 1. 0. 2. 12. 38. 87. 4. 24.
      19. 43. 0. 0. 27. 7. 0. 0. 0. 0. 0. 0. 0. 0. 0. 0. 0. 0. 0. 0. 0.
      0. 0. 0. 0. 3. 4. 0. 1. 0. 0. 4. 16. 92. 0. 0. 0. 0. 0. 156. 12.
      0. 0. 0. 0. 0. 0. 0. 0. 0. 0. 0. 0. 0. 0. 0. 0. 2. 0. 0. 3. 3. 2.
      0. 0. 0. 0. 0. 0. 70. 25. 0. 0. 0. 27. 41. 11. 0. 15. 0. 0. 0. 0.
      0. 0. 0. 0. 0. 0. 0. 0. 0. 0. 0. 0. 0. 6. 0. 0. 0. 1. 0. 0. 0. 0.
      42. 40. 4. 0. 8. 20. 0. 0. 0. 0. 0. 0. 0. 0. 0. 0. 0. 0. 0. 0. 0.
      0. 0. 0. 0. 0. 0. 1. 0. 0. 0. 2. 0. 0. 0. 0. 28. 27. 4. 0. 6. 0.
      2. 0. 0. 0. 0. 0. 0. 0. 0. 0. 0. 0. 0. 0. 0. 0. 0. 0. 0. 0. 0. 0.
      0. 0. 0. 1. 0. 7. 0. 0. 33. 3. 0. 0. 0. 0. 0. 0. 0. 0. 0. 0. 0. 0.
      0. 0. 0. 0. 0. 0. 0. 0. 0. 0. 0. 0. 0. 0. 0. 0. 0. 0. 0. 0. 6. 0.
      0. 0. 0. 0. 0. 0. 0. 0. 0. 1. 0. 0. 0. 1. 0. 0. 0. 0. 3. 0. 0. 0.
      1. 18. 0. 0. 0. 12. 3. 0. 0. 4. 0. 0. 0. 0. 0. 0. 0. 0. 0. 0. 0.
      0. 0. 1. 0. 0. 0. 0. 0. 0. 0. 0. 1. 0. 0. 0. 1. 0. 30. 0. 0. 11.
      33. 5. 0. 0. 0. 0. 0. 0. 0. 3. 6. 3. 2. 0. 8. 3. 0. 1. 0. 0. 0. 0.
      0. 0. 0. 0. 3. 0. 0. 0. 0. 0. 0. 53. 19. 101. 0. 0. 0. 2. 0. 0. 0.
      0. 0. 0. 0. 0. 0. 12. 4. 6. 0. 1. 0. 2. 0. 2. 0. 0. 0. 0. 3. 0. 6.
      0. 0. 0. 10. 18. 39. 157. 0. 0. 0. 0. 0. 0. 0. 0. 0. 10. 4. 0. 3.
      0. 0. 0. 0. 10. 0. 0. 0. 0. 0. 0. 0. 0. 9. 0. 0. 0. 0. 0. 15. 10.
      58. 147. 0. 0. 0. 0. 0. 0. 0. 0. 0. 8. 27. 11. 0. 6. 2. 12. 0. 6.
      3. 2. 9. 4. 0. 2. 0. 17. 0. 0. 0. 0. 0. 0. 0. 0. 0. 0. 0. 0. 0. 0.
      0. 12. 0. 0.</_>
    <_>
      3. 4. 2. 0. 0. 0. 8. 3. 0. 22. 3. 0. 0. 4. 9. 14. 23. 0. 8. 0. 0.
      0. 0. 0. 0. 0. 0. 0. 0. 0. 0. 0. 0. 10. 8. 0. 0. 0. 0. 0. 0. 0. 2.
      0. 0. 25. 0. 0. 0. 0. 5. 12. 6. 0. 7. 0. 14. 0. 0. 0. 0. 0. 0. 35.
      0. 0. 0. 0. 0. 0. 0. 315. 0. 0. 0. 0. 0. 0. 0. 0. 0. 0. 0. 0. 0.
      0. 0. 0. 0. 0. 0. 0. 0. 0. 0. 0. 0. 0. 0. 0. 0. 0. 0. 0. 0. 0. 0.
      0. 0. 0. 0. 0. 0. 0. 0. 0. 0. 0. 0. 0. 0. 0. 0. 0. 0. 0. 0. 0. 0.
      0. 0. 0. 0. 0. 0. 0. 0. 0. 0. 0. 0. 0. 0. 0. 0. 0. 0. 0. 0. 0. 0.
      0. 0. 0. 0. 0. 0. 0. 0. 0. 0. 0. 0. 0. 0. 0. 0. 0. 0. 0. 0. 0. 0.
      0. 0. 0. 0. 0. 0. 0. 0. 0. 0. 0. 0. 0. 0. 0. 0. 0. 0. 0. 0. 0. 0.
      0. 0. 0. 0. 0. 0. 0. 0. 0. 0. 0. 0. 0. 0. 0. 0. 0. 0. 0. 0. 0. 0.
      0. 0. 0. 0. 0. 0. 0. 0. 0. 0. 0. 0. 0. 0. 0. 0. 0. 0. 0. 0. 0. 0.
      0. 0. 0. 0. 0. 0. 0. 0. 0. 0. 0. 0. 0. 0. 0. 0. 0. 0. 0. 0. 0. 0.
      0. 0. 0. 0. 0. 0. 0. 0. 0. 0. 0. 0. 0. 0. 0. 0. 0. 0. 0. 0. 0. 0.
      0. 0. 0. 0. 0. 0. 0. 0. 0. 0. 0. 0. 0. 0. 0. 0. 0. 0. 0. 0. 0. 0.
      0. 0. 0. 0. 0. 0. 0. 0. 0. 0. 0. 0. 0. 0. 0. 0. 0. 0. 0. 0. 0. 0.
      0. 0. 0. 0. 0. 0. 0. 0. 0. 0. 0. 0. 0. 0. 0. 0. 0. 0. 0. 0. 0. 0.
      0. 0. 0. 0. 0. 0. 0. 0. 0. 0. 0. 0. 0. 0. 0. 0. 0. 0. 0. 0. 0. 0.
      0. 0. 0. 0. 0. 0. 0. 0. 0. 0. 0. 0. 0. 0. 0. 0. 0. 0. 0. 0. 0. 0.
      0. 0. 0. 0. 0. 0. 0. 0. 0. 0. 0. 0. 0. 0. 0. 0. 0. 0. 0. 0. 0. 0.
      0. 0. 0. 0. 0. 0. 0. 0. 0. 0. 0. 0. 0. 0. 0. 0. 0. 0. 0. 0. 0. 0.
      0. 0. 0. 0. 0. 0. 0. 0. 0. 0. 0. 0. 0. 0. 0. 0. 0. 0. 0. 0. 0. 0.
      0. 0. 0. 0. 0. 0. 0. 0. 0. 0. 0. 0. 0. 0. 0. 0. 0. 0. 0. 0. 0. 0.
      0. 0. 0. 0. 0. 0. 0. 0. 0. 0. 0. 0. 0. 0. 0. 0. 0. 0. 0. 0. 0. 0.
      0. 0. 0. 0. 0. 0. 0. 0. 0. 0. 0. 0. 0. 0. 0. 0. 0. 0. 0. 0. 0. 0.
      0. 0. 0. 0. 0. 0. 0. 0. 0. 0. 0. 0. 0. 0. 0. 0. 0. 0. 0. 0. 0. 0.
      0. 0. 0. 0. 0. 0. 0. 0. 0. 0. 0. 0. 0. 0. 0. 0. 0. 0. 0. 0. 0. 0.
      0. 0. 0. 0. 0. 0. 0. 0. 0. 0. 0. 0. 0. 0. 0. 0. 0. 0. 0. 0. 0. 0.
      0. 0. 0. 0. 0. 0. 0. 0. 0. 0. 0. 0. 0. 0. 0. 0. 0. 0. 0. 0. 0. 0.
      0. 0. 0. 0. 0. 0. 0. 0. 0. 0. 0. 0. 0. 0. 0. 0. 0. 0. 0. 0. 0. 0.
      0. 0. 0. 0. 0. 0. 0. 0. 0. 0. 0. 0. 0. 0. 0. 0. 0. 0. 0. 0. 0. 0.
      0. 0. 0. 0. 0. 0. 0. 0. 0. 0. 0. 0. 0. 0. 0. 0. 0. 0. 0. 0. 0. 0.
      0. 0. 0. 0. 0. 0. 0. 0. 0. 0. 0. 0. 0. 0. 0. 0. 0. 0. 0. 0. 0. 0.
      0. 0. 0. 0. 0. 0. 0. 0. 0. 0. 0. 0. 0. 0. 0. 0. 0. 0. 0.</_>
    <_>
      0. 0. 0. 0. 0. 0. 0. 0. 0. 0. 0. 0. 0. 0. 0. 0. 0. 0. 0. 0. 0. 0.
      0. 0. 0. 0. 0. 0. 0. 0. 0. 0. 0. 0. 0. 0. 0. 0. 0. 0. 0. 0. 0. 0.
      0. 0. 0. 0. 0. 0. 0. 0. 0. 0. 0. 0. 0. 0. 0. 0. 0. 0. 0. 0. 0. 0.
      0. 0. 0. 0. 0. 0. 0. 0. 0. 0. 0. 0. 0. 0. 0. 0. 0. 0. 0. 0. 0. 0.
      0. 0. 0. 0. 0. 0. 0. 0. 0. 0. 0. 0. 0. 0. 0. 0. 0. 0. 0. 0. 0. 0.
      0. 0. 0. 0. 0. 0. 0. 0. 0. 0. 0. 0. 0. 0. 0. 0. 0. 0. 0. 0. 0. 0.
      0. 0. 0. 0. 0. 0. 0. 0. 0. 0. 0. 0. 0. 0. 0. 0. 0. 0. 0. 0. 0. 0.
      0. 0. 0. 0. 0. 0. 0. 0. 0. 0. 0. 0. 0. 0. 0. 0. 0. 0. 0. 0. 0. 0.
      0. 0. 0. 0. 0. 0. 0. 0. 0. 0. 0. 0. 0. 0. 0. 0. 0. 0. 0. 0. 0. 0.
      0. 0. 0. 0. 0. 0. 0. 0. 0. 0. 0. 0. 0. 0. 0. 0. 0. 0. 0. 0. 0. 0.
      0. 0. 0. 0. 0. 0. 0. 0. 0. 0. 0. 0. 0. 0. 0. 0. 0. 0. 0. 0. 0. 0.
      0. 0. 0. 0. 0. 0. 0. 0. 0. 0. 0. 0. 0. 0. 0. 0. 0. 0. 0. 0. 0. 0.
      0. 0. 0. 0. 0. 0. 0. 0. 0. 0. 0. 0. 0. 0. 0. 0. 0. 0. 0. 0. 0. 0.
      0. 0. 0. 0. 0. 0. 0. 0. 0. 0. 0. 0. 0. 0. 0. 0. 0. 0. 0. 0. 0. 0.
      0. 0. 0. 0. 0. 0. 0. 0. 0. 0. 0. 0. 0. 0. 0. 0. 0. 0. 0. 0. 0. 0.
      0. 0. 0. 0. 0. 0. 0. 0. 0. 0. 0. 0. 0. 0. 0. 0. 0. 0. 0. 0. 0. 0.
      0. 0. 0. 0. 0. 0. 0. 0. 0. 0. 0. 0. 0. 0. 0. 0. 0. 0. 0. 0. 0. 0.
      0. 0. 0. 0. 0. 0. 0. 0. 0. 0. 0. 0. 0. 0. 0. 0. 0. 0. 0. 0. 0. 0.
      0. 0. 0. 0. 0. 0. 0. 0. 0. 0. 0. 0. 0. 0. 0. 0. 0. 0. 0. 0. 0. 0.
      0. 0. 0. 0. 0. 0. 0. 0. 0. 0. 0. 0. 0. 0. 0. 0. 0. 0. 0. 0. 0. 0.
      0. 0. 0. 0. 0. 0. 0. 0. 0. 0. 0. 0. 0. 0. 0. 0. 0. 0. 0. 0. 0. 0.
      0. 0. 0. 0. 0. 0. 0. 0. 0. 0. 0. 0. 0. 0. 0. 0. 0. 0. 0. 0. 0. 0.
      0. 0. 0. 0. 0. 0. 0. 0. 0. 0. 0. 0. 0. 0. 0. 0. 0. 0. 0. 0. 0. 3.
      4. 0. 2. 0. 0. 0. 0. 0. 0. 0. 0. 0. 0. 0. 0. 0. 0. 0. 0. 0. 0. 0.
      0. 0. 0. 23. 0. 0. 0. 0. 0. 0. 0. 0. 0. 0. 0. 0. 0. 0. 0. 0. 0. 0.
      0. 0. 0. 0. 0. 0. 0. 0. 2. 0. 0. 0. 2. 0. 0. 0. 0. 5. 50. 47. 0.
      0. 0. 0. 0. 0. 0. 11. 2. 33. 14. 21. 14. 0. 6. 0. 0. 2. 0. 0. 0.
      0. 0. 0. 0. 0. 0. 0. 0. 0. 0. 10. 34. 188. 382. 12. 13. 4. 0. 0.
      0. 0. 6. 0. 0. 0. 1. 0. 0. 0. 0. 0. 0. 0. 0. 0. 0. 0. 0. 0. 0. 0.
      0. 0. 0. 0. 0. 0. 0. 2. 0. 0. 0. 10. 5. 0. 3. 0. 3. 6. 8. 3. 0. 0.
      0. 0. 0. 0. 0. 0. 0. 0. 0. 0. 0. 0. 0. 0. 0. 0. 0. 0. 0. 0. 0. 0.
      73. 28. 0. 56. 308. 132. 61. 22. 0. 0. 0. 0. 0. 0. 0. 0. 0. 0. 0.
      0. 0. 0. 0. 0. 0. 0. 0. 0. 0. 0. 0. 0. 0. 0. 0. 0. 0. 0. 0. 0. 0.
      0. 0. 0.</_>
    <_>
      0. 0. 0. 0. 0. 0. 0. 0. 0. 0. 0. 0. 0. 0. 0. 0. 0. 0. 0. 0. 0. 0.
      0. 0. 0. 0. 0. 0. 0. 0. 0. 0. 0. 0. 0. 0. 0. 0. 0. 0. 0. 0. 0. 0.
      0. 0. 0. 0. 0. 0. 0. 0. 0. 0. 0. 0. 0. 0. 0. 0. 0. 0. 0. 0. 0. 0.
      0. 0. 0. 0. 0. 0. 0. 0. 0. 0. 0. 0. 0. 0. 0. 0. 0. 0. 0. 0. 0. 0.
      0. 0. 0. 0. 0. 0. 0. 0. 0. 0. 0. 0. 0. 0. 0. 0. 0. 0. 0. 0. 694.
      159. 62. 33. 84. 0. 0. 0. 0. 0. 111. 0. 0. 0. 0. 0. 0. 0. 0. 0. 0.
      0. 0. 9. 2. 3. 0. 16. 0. 68. 33. 67. 33. 135. 72. 295. 798. 565.
      37. 65. 33. 41. 88. 4. 0. 3. 0. 0. 0. 0. 0. 0. 0. 0. 0. 0. 0. 0.
      0. 0. 13. 9. 0. 6. 18. 146. 137. 108. 194. 44. 63. 80. 620. 504.
      78. 82. 58. 0. 0. 109. 83. 73. 0. 0. 0. 0. 0. 0. 0. 0. 0. 0. 0. 0.
      0. 0. 0. 0. 0. 40. 118. 560. 161. 243. 9. 144. 122. 121. 14. 44.
      22. 0. 0. 0. 80. 35. 76. 114. 0. 0. 263. 0. 0. 0. 98. 0. 0. 0. 0.
      0. 0. 0. 0. 0. 0. 0. 0. 0. 10. 20. 30. 10. 3. 16. 824. 170. 0. 0.
      42. 9. 324. 160. 108. 80. 0. 0. 0. 0. 36. 0. 9. 8. 0. 0. 0. 0. 0.
      7. 35. 0. 0. 0. 0. 8. 9. 0. 0. 0. 24. 96. 0. 0. 0. 0. 0. 0. 0. 0.
      0. 0. 0. 0. 0. 0. 0. 0. 0. 0. 0. 0. 0. 0. 0. 0. 0. 0. 0. 0. 0. 0.
      0. 0. 0. 0. 0. 0. 0. 0. 0. 0. 7. 0. 0. 0. 0. 26. 34. 22. 7. 10.
      34. 106. 330. 19. 0. 0. 0. 0. 0. 0. 0. 0. 0. 0. 0. 0. 0. 0. 0. 0.
      0. 0. 0. 0. 0. 0. 0. 0. 0. 0. 0. 0. 0. 0. 0. 0. 0. 0. 0. 0. 0. 0.
      0. 0. 0. 0. 0. 0. 0. 0. 0. 0. 0. 0. 0. 0. 0. 0. 0. 0. 0. 0. 0. 0.
      0. 0. 0. 0. 0. 0. 0. 0. 0. 0. 0. 0. 0. 0. 0. 0. 0. 0. 0. 0. 0. 0.
      0. 0. 0. 0. 0. 0. 0. 0. 0. 0. 0. 0. 0. 0. 0. 0. 0. 0. 0. 0. 0. 0.
      0. 0. 0. 0. 0. 0. 0. 0. 0. 0. 0. 0. 0. 0. 0. 0. 0. 0. 0. 0. 0. 0.
      0. 0. 0. 0. 0. 0. 0. 0. 0. 0. 0. 0. 0. 0. 0. 0. 0. 0. 90. 0. 11.
      44. 20. 0. 0. 0. 0. 0. 0. 0. 0. 0. 0. 0. 0. 23. 0. 0. 0. 0. 0. 0.
      0. 0. 0. 0. 0. 0. 0. 0. 0. 0. 0. 0. 19. 4. 0. 0. 0. 0. 0. 0. 0. 0.
      0. 0. 0. 0. 0. 0. 22. 0. 0. 0. 0. 0. 0. 0. 0. 0. 0. 0. 0. 0. 0. 0.
      0. 0. 0. 0. 0. 0. 0. 0. 0. 0. 0. 0. 0. 0. 0. 0. 0. 0. 0. 0. 0. 25.
      0. 0. 0. 0. 0. 0. 0. 0. 0. 26. 0. 0. 0. 0. 0. 0. 0. 0. 0. 0. 0. 0.
      0. 0. 0. 0. 0. 0. 0. 0. 0. 0. 0. 0. 0. 0. 72. 22. 67. 0. 0. 7. 0.
      0. 49. 161. 41. 54. 0. 0. 0. 0. 0. 0. 0. 0. 0. 0. 0. 0. 0. 0. 0.
      0. 0. 0. 0. 0. 0. 0. 7. 33. 17. 24. 14. 5. 0. 0. 28. 101. 90. 106.
      0. 0. 0. 0. 0. 0. 0. 0. 0. 0. 0. 0. 0. 0. 0. 0. 0. 0. 0. 0. 0. 29.
      0. 18. 70. 19. 0. 0. 0. 0. 0. 0. 0. 0. 0. 0. 0. 0. 0. 0. 0. 0. 0.
      0. 0. 0. 0. 0. 0. 0. 0. 0. 0. 0. 0. 0. 0. 0. 0. 0. 0. 0.</_>
    <_>
      0. 0. 13. 0. 0. 0. 0. 0. 0. 0. 0. 0. 0. 0. 0. 0. 0. 0. 0. 0. 0. 0.
      0. 0. 0. 0. 0. 0. 0. 0. 0. 0. 0. 0. 0. 0. 0. 0. 0. 0. 0. 6. 0. 0.
      0. 0. 0. 0. 0. 0. 0. 0. 0. 0. 0. 0. 0. 0. 0. 0. 0. 0. 0. 0. 0. 0.
      0. 0. 0. 0. 0. 0. 0. 0. 0. 32. 0. 16. 63. 12. 0. 0. 0. 14. 8. 9.
      0. 0. 0. 0. 0. 0. 0. 0. 0. 0. 0. 0. 0. 0. 0. 0. 0. 0. 0. 0. 0. 0.
      0. 0. 0. 0. 0. 0. 0. 0. 0. 0. 0. 0. 0. 0. 0. 0. 0. 0. 0. 0. 0. 0.
      0. 0. 0. 0. 0. 0. 0. 0. 0. 0. 0. 0. 0. 0. 0. 10. 0. 72. 99. 0. 0.
      0. 0. 0. 32. 0. 0. 0. 3. 0. 0. 0. 3. 6. 27. 154. 4. 41. 0. 0. 0.
      0. 4. 4. 3. 0. 0. 0. 4. 0. 0. 0. 0. 0. 0. 0. 0. 0. 0. 0. 0. 0. 0.
      0. 0. 0. 0. 0. 0. 0. 0. 0. 0. 0. 0. 0. 0. 0. 0. 0. 0. 0. 0. 0. 0.
      0. 0. 0. 0. 0. 0. 0. 0. 0. 0. 0. 0. 0. 0. 13. 0. 0. 0. 0. 0. 0. 0.
      0. 35. 58. 0. 27. 0. 0. 0. 0. 0. 0. 0. 74. 59. 127. 0. 0. 0. 0. 0.
      0. 0. 0. 0. 0. 0. 0. 0. 0. 0. 0. 0. 0. 0. 0. 0. 0. 0. 0. 0. 0. 0.
      0. 0. 0. 0. 0. 0. 0. 0. 0. 0. 0. 0. 0. 0. 0. 0. 0. 0. 0. 0. 0. 0.
      0. 0. 0. 0. 0. 0. 0. 0. 0. 0. 0. 0. 0. 0. 0. 0. 0. 0. 0. 0. 0. 0.
      0. 0. 0. 0. 0. 0. 0. 0. 0. 0. 0. 0. 0. 0. 0. 0. 0. 0. 0. 0. 0. 0.
      0. 0. 0. 0. 0. 0. 0. 0. 0. 0. 0. 0. 0. 0. 0. 0. 0. 0. 0. 0. 0. 0.
      0. 0. 0. 0. 0. 0. 0. 0. 0. 0. 0. 0. 0. 0. 0. 0. 0. 0. 0. 0. 0. 0.
      0. 0. 0. 0. 0. 0. 0. 0. 0. 0. 0. 0. 0. 0. 0. 0. 0. 0. 0. 0. 0. 0.
      0. 0. 0. 0. 0. 0. 0. 0. 0. 0. 0. 0. 0. 0. 0. 0. 0. 0. 0. 0. 0. 0.
      0. 0. 0. 0. 0. 0. 0. 0. 0. 0. 0. 0. 0. 0. 0. 0. 0. 0. 0. 0. 0. 0.
      0. 0. 0. 0. 0. 0. 0. 0. 0. 0. 0. 0. 0. 0. 0. 0. 0. 0. 0. 0. 0. 0.
      0. 0. 0. 0. 0. 0. 0. 0. 0. 0. 0. 0. 0. 0. 0. 0. 0. 0. 0. 0. 0. 0.
      0. 0. 0. 0. 0. 0. 0. 0. 0. 0. 0. 0. 0. 0. 0. 0. 0. 0. 0. 0. 0.
      211. 0. 0. 0. 0. 26. 0. 0. 0. 0. 0. 0. 0. 14. 0. 0. 0. 0. 0. 0. 0.
      0. 0. 0. 0. 0. 0. 0. 0. 0. 0. 0. 0. 25. 0. 89. 903. 1504. 1386.
      25. 0. 18. 0. 0. 0. 0. 0. 0. 0. 0. 0. 0. 0. 0. 0. 0. 0. 0. 0. 0.
      0. 0. 0. 0. 0. 0. 0. 0. 0. 14. 18. 234. 2575. 1135. 202. 0. 0. 0.
      0. 0. 0. 0. 0. 0. 0. 0. 0. 0. 0. 0. 0. 0. 0. 0. 0. 0. 0. 0. 0. 0.
      0. 0. 0. 0. 0. 0. 0. 64. 0. 0. 0. 0. 0. 0. 0. 0. 0. 0. 0. 0. 0. 0.
      0. 0. 0. 0. 0. 0. 0. 0. 0. 0. 0. 0. 0. 0. 0. 0. 0. 0. 0. 0. 0. 0.
      444. 0. 174. 0. 0. 0. 0. 0. 0. 0. 0. 0. 0. 0. 0. 0. 0. 0. 0. 0. 0.
      0. 0. 0. 0. 0. 0. 0. 0. 0. 0. 0. 0. 0. 0. 0. 1689. 160. 93. 56. 0.
      0. 0. 0. 0. 0. 0. 0. 0. 0. 0. 0. 0. 0. 0. 0.</_>
    <_>
      0. 0. 0. 0. 0. 0. 0. 0. 0. 0. 0. 0. 0. 0. 0. 37. 1083. 333. 216.
      88. 16. 0. 0. 0. 0. 0. 0. 0. 0. 0. 0. 0. 0. 0. 0. 0. 0. 0. 0. 0.
      0. 0. 0. 0. 0. 0. 0. 0. 0. 0. 0. 0. 0. 0. 0. 0. 0. 0. 0. 0. 0. 0.
      0. 0. 0. 0. 0. 0. 0. 0. 0. 0. 0. 0. 0. 0. 0. 0. 0. 0. 0. 0. 0. 0.
      0. 0. 0. 0. 0. 0. 0. 0. 0. 0. 0. 0. 0. 0. 0. 0. 0. 0. 0. 0. 0. 0.
      0. 0. 0. 0. 0. 0. 0. 0. 0. 0. 0. 0. 0. 0. 0. 0. 0. 0. 0. 0. 0. 0.
      0. 0. 0. 0. 0. 0. 0. 0. 0. 0. 0. 0. 0. 0. 0. 0. 0. 0. 0. 0. 0. 0.
      0. 0. 0. 0. 0. 0. 0. 0. 0. 0. 0. 0. 0. 0. 0. 0. 0. 0. 0. 0. 0. 0.
      0. 0. 0. 0. 0. 0. 0. 0. 0. 0. 0. 0. 0. 0. 0. 0. 0. 0. 0. 0. 0. 0.
      0. 0. 0. 0. 0. 0. 0. 0. 0. 0. 0. 0. 0. 0. 0. 0. 0. 0. 0. 0. 0. 0.
      0. 0. 0. 0. 0. 0. 0. 0. 0. 0. 0. 0. 0. 0. 0. 0. 54. 0. 0. 0. 0. 0.
      0. 0. 0. 0. 0. 0. 0. 0. 0. 0. 0. 0. 0. 0. 0. 0. 0. 0. 0. 0. 0. 0.
      0. 0. 0. 0. 0. 0. 0. 0. 0. 0. 0. 0. 0. 0. 0. 0. 0. 0. 0. 0. 0. 0.
      0. 0. 0. 0. 0. 0. 0. 0. 0. 0. 0. 0. 0. 0. 0. 0. 0. 0. 0. 0. 0. 0.
      0. 0. 0. 0. 0. 0. 0. 0. 0. 0. 0. 0. 0. 0. 0. 0. 0. 0. 0. 0. 0. 0.
      0. 0. 0. 0. 0. 0. 0. 0. 0. 0. 0. 0. 0. 0. 0. 0. 0. 0. 0. 0. 0. 0.
      0. 0. 0. 0. 0. 0. 0. 0. 0. 0. 0. 0. 0. 0. 0. 0. 0. 0. 0. 0. 0. 0.
      0. 0. 0. 0. 0. 0. 0. 0. 0. 0. 0. 0. 0. 0. 0. 0. 0. 0. 0. 0. 0. 0.
      0. 0. 0. 0. 0. 0. 0. 0. 0. 0. 0. 0. 0. 0. 0. 0. 0. 0. 0. 150. 117.
      0. 0. 0. 0. 0. 0. 0. 0. 0. 0. 0. 0. 0. 0. 0. 0. 0. 0. 0. 0. 0. 0.
      0. 0. 0. 0. 0. 0. 0. 0. 0. 0. 0. 0. 20. 44. 0. 0. 0. 0. 0. 0. 0.
      0. 0. 0. 0. 0. 0. 0. 0. 0. 0. 0. 0. 0. 0. 0. 0. 0. 0. 0. 0. 0. 0.
      0. 0. 0. 0. 0. 0. 0. 0. 0. 0. 0. 0. 0. 0. 0. 0. 0. 0. 0. 0. 0. 0.
      0. 0. 0. 0. 0. 0. 0. 0. 0. 0. 0. 0. 0. 0. 0. 0. 0. 0. 0. 0. 0. 0.
      0. 0. 0. 0. 0. 0. 0. 0. 0. 0. 0. 0. 0. 0. 0. 0. 0. 0. 0. 0. 0. 0.
      0. 0. 0. 0. 0. 0. 0. 0. 0. 0. 0. 0. 0. 0. 0. 0. 0. 0. 0. 0. 0. 0.
      0. 0. 0. 0. 0. 0. 0. 0. 0. 0. 0. 0. 0. 0. 0. 0. 0. 0. 0. 0. 0. 0.
      0. 0. 0. 0. 0. 0. 0. 0. 0. 0. 0. 0. 0. 0. 0. 0. 0. 0. 0. 0. 0. 0.
      0. 0. 0. 0. 0. 0. 0. 0. 0. 0. 0. 0. 0. 0. 0. 0. 0. 0. 0. 0. 0. 0.
      0. 0. 0. 0. 0. 0. 0. 0. 0. 0. 0. 0. 0. 0. 0. 0. 0. 0. 0. 0. 0. 0.
      0. 0. 0. 0. 0. 0. 0. 0. 0. 0. 0. 0. 20. 7. 4. 0. 7. 0. 0. 0. 0. 0.
      0. 0. 0. 0. 0. 0. 0. 0. 0. 0. 0. 0. 0. 0. 0. 0. 0. 0. 0. 0. 0. 0.
      0. 0. 0. 0. 4. 8. 0. 0. 0. 0. 4. 0. 0. 0. 0. 0. 0. 0. 0. 0. 0. 0.</_>
    <_>
      0. 0. 0. 0. 0. 0. 0. 0. 0. 0. 0. 0. 0. 0. 0. 0. 0. 0. 0. 0. 2. 0.
      0. 0. 0. 0. 0. 0. 0. 2. 0. 0. 0. 0. 0. 0. 0. 0. 0. 0. 0. 0. 0. 0.
      0. 0. 0. 0. 0. 0. 0. 0. 0. 0. 0. 0. 0. 0. 0. 0. 0. 0. 0. 0. 0. 0.
      0. 0. 0. 0. 0. 0. 0. 0. 0. 0. 0. 0. 0. 0. 0. 0. 0. 0. 0. 0. 0. 0.
      0. 0. 0. 0. 0. 0. 0. 0. 0. 0. 0. 0. 0. 0. 0. 0. 0. 0. 0. 0. 0. 0.
      5. 0. 0. 0. 0. 0. 0. 0. 0. 0. 0. 0. 0. 0. 0. 0. 0. 0. 0. 0. 0. 0.
      0. 0. 0. 0. 0. 0. 0. 0. 0. 0. 0. 0. 0. 0. 0. 0. 0. 0. 0. 0. 0. 0.
      0. 0. 0. 0. 0. 0. 0. 0. 0. 0. 0. 0. 0. 0. 0. 4. 0. 0. 0. 0. 0. 0.
      0. 0. 0. 0. 0. 0. 0. 0. 0. 0. 0. 0. 0. 0. 0. 0. 0. 1. 0. 4. 0. 0.
      0. 0. 0. 0. 0. 0. 0. 0. 0. 0. 0. 0. 0. 0. 0. 0. 0. 0. 0. 0. 0. 0.
      0. 0. 0. 0. 0. 0. 0. 6. 0. 0. 6. 0. 0. 0. 0. 0. 0. 0. 0. 0. 0. 0.
      0. 0. 0. 0. 0. 0. 0. 0. 0. 0. 0. 0. 0. 0. 0. 0. 0. 0. 0. 0. 0. 0.
      0. 5. 0. 0. 0. 0. 3. 0. 0. 0. 0. 0. 0. 0. 0. 0. 0. 0. 0. 0. 0. 0.
      0. 0. 0. 0. 0. 0. 0. 0. 0. 0. 0. 0. 0. 0. 0. 0. 12. 0. 0. 0. 5. 0.
      0. 0. 0. 0. 0. 0. 0. 0. 0. 0. 0. 0. 0. 0. 0. 0. 0. 0. 0. 0. 0. 0.
      0. 0. 0. 0. 0. 0. 0. 0. 0. 0. 0. 14. 0. 0. 0. 0. 0. 0. 0. 0. 0. 0.
      0. 0. 0. 0. 0. 0. 0. 0. 0. 0. 0. 0. 0. 0. 0. 0. 0. 0. 0. 0. 0. 0.
      0. 0. 3. 0. 0. 4. 0. 0. 0. 0. 0. 0. 0. 0. 0. 0. 0. 0. 0. 0. 0. 0.
      0. 0. 0. 0. 0. 0. 0. 0. 0. 0. 0. 0. 0. 0. 3. 0. 0. 0. 12. 5. 0. 0.
      0. 0. 0. 0. 0. 0. 0. 0. 0. 0. 0. 0. 0. 0. 0. 0. 0. 0. 0. 0. 0. 0.
      0. 0. 0. 0. 0. 0. 0. 0. 4. 0. 0. 5. 0. 0. 1. 0. 0. 0. 0. 0. 0. 0.
      0. 0. 0. 0. 0. 0. 0. 0. 0. 0. 0. 0. 0. 0. 0. 0. 0. 0. 0. 0. 0. 0.
      0. 0. 0. 0. 0. 0. 0. 0. 0. 0. 0. 0. 0. 0. 0. 0. 17. 0. 0. 0. 0. 0.
      0. 0. 0. 0. 0. 0. 0. 0. 0. 0. 0. 0. 0. 9. 0. 0. 0. 0. 0. 0. 0. 0.
      0. 0. 0. 0. 0. 0. 7. 0. 0. 0. 0. 0. 0. 0. 0. 0. 0. 0. 0. 0. 0. 0.
      0. 0. 0. 0. 0. 0. 0. 0. 0. 0. 0. 0. 0. 8. 14. 0. 0. 0. 0. 0. 0. 0.
      0. 0. 0. 0. 0. 0. 0. 0. 0. 0. 0. 0. 0. 0. 0. 0. 0. 0. 0. 0. 0. 0.
      0. 0. 0. 0. 0. 6. 4. 0. 0. 0. 0. 0. 0. 0. 0. 0. 0. 0. 0. 0. 0. 0.
      0. 0. 0. 0. 0. 0. 0. 0. 0. 0. 0. 0. 0. 0. 0. 0. 0. 0. 1. 7. 0. 0.
      0. 0. 0. 0. 0. 0. 0. 0. 0. 0. 0. 0. 0. 0. 0. 0. 0. 0. 0. 0. 0. 0.
      0. 0. 0. 0. 0. 0. 0. 0. 0. 0. 0. 0. 0. 22. 0. 0. 0. 0. 0. 0. 0. 0.
      0. 0. 0. 0. 0. 0. 0. 0. 0. 0. 0. 0. 0. 0. 0. 0. 0. 0. 0. 0. 0. 0.
      0. 0. 0. 0. 0. 0. 0. 0. 0. 0. 0. 4. 0. 0. 0. 0.</_>
    <_>
      0. 7. 0. 0. 0. 19. 0. 22. 213. 186. 328. 303. 329. 176. 3. 29. 31.
      39. 14. 0. 0. 0. 0. 0. 0. 0. 0. 0. 0. 0. 0. 0. 0. 0. 0. 0. 0. 0.
      0. 0. 0. 0. 0. 0. 27. 107. 304. 479. 405. 271. 66. 42. 44. 0. 81.
      62. 0. 0. 0. 0. 0. 0. 0. 0. 0. 0. 0. 0. 0. 0. 0. 0. 0. 3. 0. 0. 0.
      0. 0. 0. 0. 3. 0. 0. 0. 0. 53. 61. 0. 18. 0. 0. 0. 0. 0. 0. 0. 0.
      0. 0. 0. 0. 0. 0. 0. 0. 4. 0. 0. 0. 0. 0. 0. 0. 0. 0. 0. 0. 0. 0.
      0. 0. 0. 0. 0. 0. 0. 0. 0. 0. 0. 0. 0. 0. 0. 0. 0. 0. 0. 0. 0. 0.
      0. 0. 0. 0. 0. 0. 0. 0. 0. 0. 0. 0. 0. 0. 0. 0. 0. 0. 0. 0. 0. 0.
      0. 0. 0. 0. 0. 0. 0. 0. 0. 0. 0. 0. 0. 0. 0. 0. 0. 0. 0. 0. 0. 0.
      0. 0. 0. 0. 0. 0. 0. 0. 0. 0. 0. 0. 0. 0. 0. 0. 0. 0. 0. 0. 0. 0.
      0. 0. 0. 0. 0. 0. 0. 0. 0. 0. 0. 0. 0. 0. 0. 0. 0. 0. 0. 0. 0. 0.
      0. 0. 0. 0. 0. 0. 0. 0. 0. 0. 0. 0. 0. 0. 0. 0. 0. 0. 0. 0. 0. 0.
      0. 0. 0. 0. 0. 0. 0. 0. 0. 0. 0. 0. 0. 0. 0. 0. 0. 0. 0. 0. 0. 0.
      0. 0. 0. 0. 0. 0. 0. 0. 0. 0. 0. 0. 0. 0. 0. 0. 0. 0. 0. 0. 0. 0.
      0. 0. 0. 0. 0. 0. 0. 0. 0. 0. 0. 0. 0. 0. 0. 0. 0. 0. 0. 0. 0. 0.
      0. 0. 0. 0. 0. 0. 0. 0. 0. 0. 0. 0. 0. 0. 0. 0. 0. 0. 0. 0. 0. 0.
      0. 0. 0. 0. 0. 0. 0. 0. 0. 0. 0. 0. 0. 0. 0. 0. 0. 0. 0. 0. 0. 0.
      0. 0. 0. 0. 0. 0. 0. 0. 0. 0. 0. 0. 0. 0. 0. 0. 0. 0. 0. 0. 0. 0.
      0. 0. 0. 0. 0. 0. 0. 0. 0. 0. 0. 0. 0. 0. 0. 0. 0. 0. 0. 0. 0. 0.
      0. 0. 0. 0. 0. 0. 0. 0. 0. 0. 0. 0. 0. 0. 0. 0. 0. 0. 0. 0. 0. 0.
      0. 0. 0. 0. 0. 0. 0. 0. 0. 0. 0. 0. 0. 0. 0. 0. 0. 0. 0. 0. 0. 0.
      0. 0. 0. 0. 0. 0. 0. 0. 0. 0. 0. 0. 0. 0. 0. 0. 0. 0. 0. 0. 0. 0.
      0. 0. 0. 0. 0. 0. 0. 0. 0. 0. 0. 0. 0. 0. 0. 0. 0. 0. 0. 0. 0. 0.
      0. 0. 0. 0. 0. 0. 0. 0. 0. 0. 0. 0. 0. 0. 0. 0. 0. 0. 0. 0. 0. 0.
      0. 0. 0. 0. 0. 0. 0. 0. 0. 0. 0. 0. 0. 0. 0. 0. 0. 0. 0. 0. 0. 0.
      0. 0. 0. 0. 0. 0. 0. 0. 0. 0. 0. 0. 0. 0. 0. 0. 0. 0. 0. 0. 0. 0.
      0. 0. 0. 0. 0. 0. 0. 0. 0. 0. 0. 0. 0. 0. 0. 0. 0. 0. 0. 0. 0. 0.
      0. 0. 0. 0. 0. 0. 0. 0. 0. 0. 0. 0. 0. 0. 0. 0. 0. 0. 0. 0. 0. 0.
      0. 0. 0. 0. 0. 0. 0. 0. 0. 0. 0. 0. 0. 0. 0. 0. 0. 0. 0. 0. 0. 0.
      0. 0. 0. 0. 0. 0. 0. 0. 0. 0. 0. 0. 0. 0. 0. 0. 0. 0. 0. 0. 0. 0.
      0. 0. 0. 0. 0. 0. 0. 0. 0. 0. 0. 0. 0. 0. 0. 0. 0. 0. 0. 0. 0. 0.
      0. 0. 0. 0. 0. 0. 0. 0. 0. 0. 0. 0. 0. 0. 0. 0. 0. 0. 0. 0. 0. 0.
      0. 0. 0. 0. 0. 0. 0. 0. 0. 0. 0. 0. 0. 0. 0. 0. 0. 0. 0. 0. 0. 0.
      0. 0. 0. 0. 0. 0.</_>
    <_>
      0. 0. 0. 0. 0. 0. 0. 0. 0. 0. 0. 0. 0. 0. 0. 0. 0. 0. 0. 0. 0. 0.
      0. 0. 0. 0. 0. 0. 0. 0. 0. 0. 0. 0. 0. 0. 0. 0. 0. 0. 0. 0. 0. 0.
      0. 2. 0. 0. 0. 1. 0. 0. 0. 0. 0. 0. 0. 0. 0. 0. 0. 0. 0. 0. 0. 0.
      0. 0. 0. 0. 0. 0. 0. 0. 0. 0. 0. 0. 0. 0. 0. 0. 0. 0. 0. 0. 0. 0.
      0. 0. 0. 0. 0. 0. 0. 0. 0. 0. 0. 0. 0. 0. 0. 0. 0. 0. 0. 0. 0. 0.
      0. 0. 0. 0. 0. 0. 0. 0. 0. 0. 0. 0. 0. 0. 0. 0. 0. 0. 0. 0. 0. 0.
      0. 0. 0. 0. 0. 0. 0. 0. 0. 0. 0. 0. 0. 0. 0. 0. 0. 0. 0. 0. 0. 0.
      0. 0. 0. 0. 0. 0. 0. 0. 0. 0. 0. 0. 0. 0. 0. 0. 0. 0. 0. 0. 0. 0.
      0. 0. 0. 0. 0. 0. 0. 0. 0. 0. 0. 0. 0. 0. 0. 0. 0. 0. 0. 0. 0. 0.
      0. 0. 0. 0. 0. 0. 0. 0. 0. 0. 0. 0. 0. 0. 0. 0. 0. 0. 1. 0. 0. 0.
      1. 0. 0. 0. 0. 0. 0. 0. 0. 0. 0. 0. 0. 0. 0. 0. 0. 0. 0. 0. 0. 0.
      0. 0. 0. 0. 0. 0. 0. 0. 0. 0. 0. 0. 0. 0. 0. 0. 0. 0. 0. 0. 0. 0.
      0. 0. 0. 0. 0. 0. 0. 0. 0. 0. 0. 0. 0. 0. 0. 0. 0. 0. 0. 0. 0. 0.
      0. 0. 0. 0. 0. 0. 0. 0. 0. 0. 0. 0. 0. 0. 0. 0. 0. 0. 0. 0. 0. 0.
      0. 0. 0. 0. 0. 0. 0. 0. 0. 0. 0. 0. 0. 0. 0. 0. 0. 0. 0. 0. 0. 0.
      0. 0. 0. 0. 0. 0. 0. 0. 0. 0. 0. 0. 0. 0. 0. 0. 0. 0. 0. 0. 0. 0.
      0. 0. 0. 0. 0. 0. 0. 0. 0. 0. 0. 0. 0. 0. 0. 0. 0. 0. 0. 0. 0. 0.
      0. 0. 0. 0. 0. 0. 0. 0. 0. 0. 0. 0. 0. 0. 0. 0. 0. 0. 0. 0. 0. 0.
      0. 0. 0. 0. 0. 0. 0. 0. 0. 0. 0. 0. 0. 0. 0. 0. 0. 0. 0. 0. 0. 0.
      0. 0. 0. 0. 0. 0. 0. 0. 0. 0. 0. 0. 0. 0. 0. 0. 0. 0. 0. 0. 0. 0.
      0. 0. 0. 0. 0. 0. 0. 0. 0. 0. 0. 0. 0. 0. 0. 0. 0. 0. 0. 0. 0. 0.
      0. 0. 0. 0. 0. 0. 0. 0. 0. 0. 0. 0. 2106. 299. 914. 205. 777. 160.
      0. 792. 1148. 1232. 0. 192. 301. 0. 0. 0. 0. 0. 0. 0. 0. 0. 0. 0.
      0. 0. 0. 0. 0. 0. 12. 0. 0. 0. 0. 0. 0. 0. 0. 0. 0. 0. 0. 0. 0. 0.
      0. 0. 0. 0. 0. 0. 0. 0. 0. 0. 0. 0. 0. 0. 0. 0. 0. 4. 0. 0. 42. 3.
      0. 0. 0. 0. 0. 0. 0. 0. 0. 0. 0. 0. 0. 0. 0. 0. 0. 0. 0. 0. 0. 0.
      0. 0. 0. 0. 0. 0. 0. 0. 0. 0. 4. 0. 42. 4. 2. 0. 0. 0. 0. 0. 0. 0.
      0. 0. 0. 0. 0. 0. 0. 0. 0. 0. 0. 0. 0. 0. 0. 0. 0. 0. 0. 0. 0. 0.
      0. 0. 4. 0. 18. 0. 2. 0. 0. 0. 0. 0. 0. 0. 0. 0. 0. 0. 0. 0. 0. 0.
      0. 0. 0. 0. 0. 0. 0. 0. 0. 0. 0. 0. 0. 0. 0. 2. 8. 0. 20. 0. 0. 0.
      0. 0. 0. 0. 0. 0. 0. 0. 0. 0. 0. 0. 0. 0. 0. 0. 0. 0. 0. 0. 0. 0.
      0. 0. 0. 2. 0. 0. 0. 0. 0. 0. 32. 0. 4. 0. 0. 0. 0. 0. 0. 0. 0. 0.
      0. 0. 0. 0. 0. 0. 0. 0. 0. 0. 0. 0. 0. 0. 0. 0. 0. 0. 0. 0. 0. 0.
      4. 0.</_>
    <_>
      29. 16. 0. 0. 0. 0. 0. 0. 0. 0. 0. 0. 0. 0. 0. 0. 0. 0. 0. 0. 0.
      0. 0. 0. 0. 0. 0. 0. 0. 0. 0. 0. 0. 0. 0. 0. 90. 40. 0. 0. 0. 0.
      0. 0. 0. 0. 0. 0. 0. 0. 0. 0. 0. 0. 0. 0. 0. 0. 0. 0. 0. 0. 0. 0.
      0. 0. 0. 0. 0. 0. 0. 0. 136. 40. 0. 0. 0. 0. 0. 0. 0. 0. 0. 0. 0.
      0. 0. 0. 0. 0. 0. 0. 0. 0. 0. 0. 0. 0. 0. 0. 0. 0. 0. 0. 0. 0. 0.
      0. 38. 4. 0. 0. 0. 0. 0. 0. 0. 0. 0. 0. 0. 0. 0. 0. 0. 0. 0. 0. 0.
      0. 0. 0. 0. 0. 0. 0. 0. 0. 0. 0. 0. 0. 0. 0. 64. 8. 0. 0. 0. 0. 0.
      0. 0. 0. 0. 0. 0. 0. 0. 0. 0. 0. 0. 0. 0. 0. 0. 0. 0. 0. 0. 0. 0.
      0. 0. 0. 0. 0. 0. 6. 140. 25. 0. 0. 0. 0. 0. 0. 0. 0. 0. 0. 0. 0.
      0. 0. 0. 0. 0. 0. 0. 0. 0. 0. 0. 0. 0. 0. 0. 0. 0. 0. 0. 0. 0. 0.
      129. 8. 0. 0. 0. 0. 0. 0. 0. 0. 0. 0. 0. 0. 0. 0. 0. 0. 0. 0. 0.
      0. 0. 0. 0. 0. 0. 0. 0. 0. 0. 0. 0. 0. 0. 0. 129. 36. 0. 0. 0. 0.
      0. 0. 0. 0. 0. 0. 0. 0. 0. 0. 0. 0. 0. 0. 0. 0. 0. 0. 0. 0. 0. 0.
      0. 0. 0. 0. 0. 0. 0. 0. 343. 41. 0. 0. 0. 0. 0. 0. 0. 0. 0. 0. 0.
      0. 0. 0. 0. 0. 0. 0. 0. 0. 0. 0. 0. 0. 0. 0. 0. 0. 0. 0. 0. 0. 0.
      0. 112. 115. 0. 0. 0. 0. 0. 0. 0. 0. 0. 0. 0. 0. 0. 0. 0. 0. 0. 0.
      0. 0. 0. 0. 0. 0. 0. 0. 0. 0. 0. 0. 0. 0. 0. 0. 383. 64. 0. 0. 0.
      0. 0. 0. 0. 0. 0. 0. 0. 0. 0. 0. 0. 0. 0. 0. 0. 0. 0. 0. 0. 0. 0.
      0. 0. 0. 0. 0. 0. 0. 0. 0. 174. 119. 0. 0. 0. 0. 0. 0. 0. 0. 0. 0.
      0. 0. 0. 0. 0. 0. 0. 0. 0. 0. 0. 0. 0. 0. 0. 0. 0. 0. 0. 0. 0. 0.
      0. 0. 348. 60. 0. 0. 0. 0. 0. 0. 0. 0. 0. 0. 0. 0. 0. 0. 0. 0. 0.
      0. 0. 0. 0. 0. 0. 0. 0. 0. 0. 0. 0. 0. 0. 0. 0. 0. 350. 23. 0. 0.
      0. 0. 0. 0. 0. 0. 0. 0. 0. 0. 0. 0. 0. 0. 0. 0. 0. 0. 0. 0. 0. 0.
      0. 0. 0. 0. 0. 0. 0. 0. 0. 0. 343. 47. 0. 0. 0. 0. 0. 0. 0. 0. 0.
      0. 0. 0. 0. 0. 0. 0. 0. 0. 0. 0. 0. 0. 0. 0. 0. 0. 0. 0. 0. 0. 0.
      0. 0. 26. 577. 34. 0. 0. 0. 0. 0. 0. 0. 0. 0. 0. 0. 0. 0. 0. 0. 0.
      0. 0. 0. 0. 0. 0. 0. 0. 0. 0. 0. 0. 0. 0. 0. 0. 0. 30. 585. 0. 0.
      0. 0. 0. 0. 0. 0. 0. 0. 0. 0. 0. 0. 0. 0. 0. 0. 0. 0. 0. 0. 0. 0.
      0. 0. 0. 0. 0. 0. 0. 0. 0. 0. 318. 738. 0. 0. 0. 0. 0. 0. 0. 0. 0.
      0. 0. 0. 0. 0. 0. 0. 0. 0. 0. 0. 0. 0. 0. 0. 0. 0. 0. 0. 0. 0. 10.
      22. 0. 0. 161. 577. 45. 0. 0. 0. 0. 0. 0. 0. 0. 0. 0. 0. 0. 0. 0.
      0. 0. 0. 0. 0. 0. 0. 0. 0. 0. 0. 0. 0. 0. 0. 24. 12. 0. 0. 142.
      268. 62. 76. 0. 0. 0. 0. 0. 0. 0. 0. 0. 0. 0. 0. 0. 0. 0. 0. 0. 0.
      0. 0. 0. 0. 0. 0. 0. 0. 31. 0. 0. 0. 0. 0. 54.</_>
    <_>
      204. 54. 32. 0. 0. 0. 0. 0. 0. 0. 0. 0. 0. 0. 0. 0. 0. 0. 0. 0. 0.
      0. 0. 0. 0. 0. 0. 0. 0. 0. 0. 0. 0. 0. 0. 22. 225. 24. 25. 22. 0.
      0. 8. 0. 0. 0. 0. 0. 0. 0. 0. 0. 0. 0. 0. 0. 0. 0. 0. 0. 0. 0. 0.
      0. 0. 0. 0. 0. 0. 0. 0. 8. 205. 20. 5. 15. 0. 0. 0. 0. 0. 0. 0. 0.
      0. 0. 0. 0. 0. 0. 0. 0. 0. 0. 0. 0. 0. 0. 0. 0. 0. 0. 0. 0. 0. 0.
      0. 0. 190. 29. 0. 0. 0. 0. 0. 0. 0. 0. 0. 0. 0. 0. 0. 0. 0. 0. 0.
      0. 0. 0. 0. 0. 0. 0. 0. 0. 0. 0. 0. 0. 0. 0. 0. 31. 120. 12. 0. 9.
      0. 0. 0. 0. 0. 0. 0. 0. 0. 0. 0. 0. 0. 0. 0. 0. 0. 0. 0. 0. 0. 0.
      0. 0. 0. 0. 0. 0. 0. 0. 5. 15. 39. 0. 0. 0. 1. 0. 0. 3. 0. 9. 4.
      0. 0. 1. 0. 0. 0. 0. 0. 0. 0. 0. 0. 0. 0. 0. 0. 0. 0. 0. 0. 0. 0.
      0. 15. 0. 0. 0. 0. 0. 0. 0. 0. 0. 0. 0. 4. 4. 13. 5. 0. 14. 12. 0.
      2. 0. 0. 0. 0. 0. 0. 0. 0. 0. 0. 0. 0. 0. 0. 6. 0. 0. 0. 0. 0. 0.
      0. 0. 0. 0. 0. 0. 0. 8. 6. 7. 14. 8. 27. 0. 32. 0. 0. 0. 0. 0. 0.
      0. 0. 0. 0. 0. 0. 0. 0. 4. 0. 0. 0. 0. 0. 0. 0. 0. 0. 0. 0. 0. 0.
      0. 0. 10. 3. 0. 32. 0. 32. 0. 0. 0. 0. 0. 0. 0. 0. 0. 0. 0. 0. 0.
      0. 0. 0. 0. 0. 0. 0. 0. 0. 0. 0. 0. 0. 0. 0. 0. 0. 0. 0. 10. 4. 6.
      25. 34. 22. 0. 0. 0. 0. 0. 0. 0. 0. 0. 0. 0. 0. 0. 0. 0. 0. 0. 0.
      0. 0. 0. 0. 0. 0. 0. 0. 0. 0. 3. 0. 4. 5. 0. 67. 15. 8. 0. 0. 0.
      0. 0. 0. 0. 0. 0. 0. 0. 0. 0. 0. 0. 0. 0. 0. 0. 0. 0. 0. 0. 0. 0.
      0. 0. 0. 5. 9. 0. 8. 0. 62. 25. 0. 10. 10. 0. 0. 0. 0. 0. 0. 0. 0.
      0. 0. 0. 0. 0. 0. 0. 0. 0. 0. 0. 0. 0. 0. 7. 0. 5. 0. 5. 0. 6. 15.
      0. 31. 20. 0. 0. 0. 0. 0. 0. 0. 0. 0. 0. 0. 0. 0. 0. 0. 0. 0. 0.
      0. 5. 5. 12. 0. 0. 0. 3. 0. 0. 8. 2. 9. 0. 31. 0. 34. 0. 0. 0. 0.
      0. 0. 0. 0. 0. 0. 0. 0. 0. 0. 0. 0. 0. 0. 0. 2. 0. 9. 10. 2. 0. 0.
      2. 0. 2. 0. 0. 3. 6. 15. 0. 33. 15. 0. 0. 0. 0. 0. 0. 0. 0. 0. 0.
      0. 0. 0. 0. 0. 0. 0. 0. 0. 5. 1. 0. 4. 0. 0. 2. 0. 0. 0. 0. 0. 4.
      6. 12. 34. 3. 0. 0. 0. 3. 2. 0. 0. 0. 0. 0. 0. 0. 0. 0. 0. 0. 0.
      11. 10. 0. 0. 0. 0. 0. 0. 11. 0. 0. 0. 12. 12. 0. 5. 8. 27. 24. 0.
      0. 2. 0. 0. 6. 0. 0. 0. 0. 0. 0. 0. 0. 0. 0. 0. 12. 0. 0. 0. 0. 0.
      0. 0. 1. 0. 32. 0. 0. 10. 0. 4. 18. 51. 4. 0. 0. 0. 0. 4. 0. 0. 1.
      0. 0. 0. 0. 0. 0. 0. 0. 0. 8. 4. 6. 0. 0. 0. 0. 0. 4. 0. 2. 21. 0.
      0. 2. 17. 32. 22. 8. 0. 0. 0. 0. 0. 0. 0. 3. 0. 0. 0. 0. 0. 0. 0.
      0. 0. 5. 9. 11. 0. 0. 0. 0. 0. 0. 0. 0. 0. 11. 0. 7. 36. 20. 32.
      0. 0. 0. 5. 0. 0. 0. 0. 2. 0. 0. 0. 1. 0. 0. 0. 0.</_>
    <_>
      0. 13. 2. 0. 2. 0. 0. 5. 0. 5. 36. 0. 0. 0. 0. 2. 23. 25. 118. 12.
      0. 0. 0. 0. 0. 0. 0. 0. 0. 0. 0. 0. 0. 0. 0. 0. 0. 9. 6. 3. 0. 0.
      0. 0. 0. 0. 0. 0. 0. 0. 0. 16. 157. 57. 97. 0. 0. 0. 0. 0. 0. 0.
      0. 0. 0. 0. 0. 0. 0. 0. 0. 0. 0. 0. 18. 0. 0. 0. 0. 0. 0. 0. 0. 0.
      0. 0. 0. 9. 35. 28. 41. 0. 0. 0. 0. 0. 0. 0. 0. 0. 0. 0. 0. 0. 0.
      8. 4. 0. 0. 0. 0. 12. 0. 0. 0. 0. 0. 0. 0. 0. 0. 0. 0. 0. 0. 145.
      26. 0. 16. 0. 0. 0. 0. 0. 0. 1. 0. 0. 0. 2. 3. 0. 8. 0. 0. 0. 0.
      0. 0. 0. 0. 0. 0. 0. 0. 0. 0. 0. 0. 10. 3. 75. 58. 0. 0. 43. 0. 0.
      0. 0. 0. 1. 0. 0. 0. 0. 0. 0. 12. 0. 0. 0. 0. 0. 0. 0. 0. 0. 0. 0.
      0. 0. 0. 6. 0. 0. 14. 97. 57. 0. 0. 43. 24. 0. 0. 0. 0. 0. 0. 0.
      0. 0. 9. 2. 0. 0. 0. 0. 0. 0. 0. 0. 0. 9. 0. 6. 0. 4. 0. 1. 0. 6.
      16. 6. 72. 0. 16. 0. 0. 0. 0. 0. 0. 0. 0. 0. 0. 0. 0. 0. 0. 0. 0.
      3. 2. 0. 0. 0. 0. 0. 0. 22. 7. 0. 0. 0. 0. 42. 49. 0. 25. 0. 0. 0.
      0. 0. 0. 0. 0. 0. 0. 0. 0. 0. 0. 0. 0. 0. 0. 5. 0. 0. 2. 0. 5. 12.
      0. 0. 0. 0. 0. 7. 18. 21. 42. 0. 5. 0. 0. 0. 0. 0. 4. 0. 0. 0. 0.
      0. 0. 0. 0. 0. 0. 0. 0. 6. 4. 30. 5. 0. 0. 0. 0. 0. 0. 0. 3. 0. 0.
      12. 12. 0. 4. 0. 0. 0. 0. 0. 0. 0. 0. 0. 0. 0. 0. 0. 0. 0. 0. 0.
      0. 6. 5. 0. 6. 5. 8. 9. 0. 17. 0. 0. 0. 0. 0. 0. 5. 6. 7. 0. 0. 0.
      0. 0. 0. 0. 0. 0. 0. 0. 0. 0. 0. 0. 0. 0. 0. 0. 0. 0. 0. 3. 0. 10.
      0. 0. 0. 0. 0. 0. 0. 0. 0. 0. 6. 8. 0. 0. 0. 0. 0. 0. 0. 0. 0. 0.
      0. 0. 0. 0. 3. 12. 0. 7. 6. 0. 0. 0. 0. 0. 0. 2. 0. 0. 0. 0. 0. 0.
      0. 0. 0. 0. 0. 25. 0. 0. 0. 0. 0. 0. 0. 0. 0. 0. 0. 0. 0. 0. 0.
      10. 12. 0. 0. 0. 0. 0. 0. 0. 0. 0. 0. 0. 0. 0. 0. 0. 7. 10. 0. 0.
      0. 0. 0. 0. 0. 0. 0. 0. 0. 0. 0. 8. 0. 0. 0. 0. 0. 3. 4. 10. 0. 0.
      0. 0. 0. 0. 0. 0. 0. 0. 22. 0. 0. 0. 0. 0. 0. 0. 0. 0. 0. 0. 0. 0.
      0. 0. 0. 0. 0. 0. 27. 3. 4. 0. 12. 0. 4. 0. 0. 0. 0. 0. 0. 0. 0.
      0. 12. 0. 0. 0. 0. 0. 0. 0. 0. 0. 0. 0. 0. 0. 0. 0. 0. 0. 0. 0.
      21. 7. 9. 8. 0. 0. 0. 0. 0. 0. 0. 0. 0. 0. 0. 0. 0. 0. 0. 0. 0. 0.
      0. 0. 0. 0. 0. 0. 0. 0. 0. 0. 0. 0. 0. 0. 61. 21. 10. 0. 0. 0. 0.
      0. 0. 1. 0. 0. 0. 0. 0. 0. 0. 0. 0. 0. 0. 0. 0. 0. 0. 0. 0. 0. 0.
      0. 0. 0. 0. 0. 0. 0. 49. 44. 27. 0. 2. 10. 0. 0. 0. 0. 0. 0. 0. 0.
      0. 0. 0. 0. 0. 0. 0. 0. 0. 0. 0. 0. 0. 0. 0. 0. 0. 0. 0. 0. 0. 0.
      79. 41. 8. 0. 0. 0. 0. 0. 0. 0. 0. 0. 0. 0. 0. 0. 0. 0. 0. 0. 0.
      0. 0. 0. 0. 0. 0. 0. 0. 0. 0. 0. 0. 0. 4. 0.</_>
    <_>
      37. 58. 20. 3. 0. 0. 0. 0. 0. 0. 0. 0. 0. 0. 0. 0. 0. 0. 0. 0. 0.
      0. 0. 0. 0. 0. 0. 0. 0. 0. 0. 0. 0. 0. 0. 0. 53. 23. 10. 0. 0. 0.
      0. 0. 0. 0. 0. 0. 0. 0. 0. 0. 0. 0. 0. 0. 0. 0. 0. 0. 0. 0. 0. 0.
      0. 0. 0. 0. 0. 0. 0. 0. 70. 71. 5. 0. 0. 0. 0. 0. 0. 0. 0. 0. 0.
      0. 0. 0. 0. 0. 0. 0. 0. 0. 0. 0. 0. 0. 0. 0. 0. 0. 0. 0. 0. 0. 0.
      0. 80. 35. 10. 0. 0. 0. 0. 0. 0. 0. 0. 0. 0. 0. 0. 0. 0. 0. 0. 0.
      0. 0. 0. 0. 0. 0. 0. 0. 0. 0. 0. 0. 0. 0. 0. 0. 25. 14. 123. 46.
      25. 38. 33. 65. 8. 93. 54. 53. 108. 154. 52. 10. 92. 62. 40. 17.
      0. 0. 0. 0. 0. 0. 10. 0. 0. 0. 0. 41. 0. 0. 0. 0. 300. 0. 25. 24.
      66. 168. 55. 13. 0. 206. 0. 26. 10. 24. 38. 44. 0. 0. 148. 10. 33.
      0. 0. 0. 0. 26. 0. 0. 0. 0. 0. 0. 0. 0. 0. 0. 15. 0. 12. 6. 4. 3.
      32. 30. 14. 26. 8. 53. 24. 0. 168. 55. 42. 11. 53. 64. 0. 0. 0. 0.
      0. 0. 0. 16. 0. 0. 0. 0. 0. 0. 29. 0. 0. 0. 0. 28. 10. 10. 6. 6.
      0. 34. 0. 0. 80. 45. 44. 112. 237. 136. 24. 48. 23. 3. 0. 33. 12.
      10. 0. 0. 0. 0. 8. 2. 18. 0. 34. 0. 0. 0. 0. 0. 10. 0. 0. 0. 13.
      0. 0. 39. 0. 0. 22. 244. 160. 43. 93. 42. 140. 97. 106. 28. 0. 14.
      9. 0. 53. 0. 14. 15. 0. 12. 0. 0. 0. 0. 0. 0. 0. 0. 0. 0. 0. 21.
      0. 23. 63. 89. 72. 144. 375. 56. 151. 120. 6. 69. 0. 0. 0. 0. 52.
      76. 3. 0. 0. 3. 0. 6. 0. 0. 0. 0. 15. 0. 2. 0. 2. 0. 0. 2. 0. 0.
      90. 0. 26. 138. 134. 565. 128. 132. 7. 35. 0. 0. 0. 84. 0. 0. 0.
      0. 0. 7. 28. 0. 32. 0. 0. 0. 0. 0. 0. 0. 0. 0. 0. 0. 0. 0. 0. 0.
      0. 0. 0. 0. 0. 0. 0. 0. 0. 0. 0. 0. 0. 0. 0. 0. 0. 0. 0. 0. 0. 0.
      0. 0. 0. 0. 0. 0. 0. 0. 0. 0. 0. 0. 0. 0. 0. 0. 0. 0. 0. 0. 0. 0.
      0. 0. 0. 0. 0. 0. 0. 0. 0. 0. 0. 0. 0. 0. 0. 0. 0. 0. 0. 0. 0. 0.
      0. 0. 0. 0. 0. 0. 0. 0. 0. 0. 0. 0. 0. 0. 0. 0. 0. 0. 0. 0. 0. 0.
      0. 0. 0. 0. 0. 0. 0. 0. 0. 0. 0. 0. 0. 0. 0. 0. 0. 0. 0. 0. 0. 0.
      0. 0. 0. 0. 0. 0. 0. 0. 0. 0. 0. 0. 0. 0. 0. 0. 0. 0. 0. 0. 0. 0.
      0. 0. 0. 0. 0. 0. 0. 0. 0. 0. 0. 0. 0. 0. 0. 0. 0. 0. 0. 0. 0. 0.
      0. 0. 0. 0. 0. 0. 0. 0. 0. 0. 0. 0. 0. 0. 0. 0. 0. 0. 0. 0. 0. 0.
      0. 0. 0. 0. 0. 0. 0. 0. 4. 25. 0. 0. 6. 0. 2. 0. 0. 4. 0. 0. 0. 4.
      0. 0. 11. 0. 0. 0. 0. 0. 5. 0. 0. 0. 0. 0. 0. 0. 0. 0. 0. 2. 8. 0.
      6. 0. 2. 0. 0. 0. 0. 0. 0. 0. 0. 0. 0. 3. 0. 0. 0. 0. 0. 0. 0. 0.
      0. 0. 0. 0. 0. 0. 0. 0. 0. 0. 0. 0. 0. 0. 0. 0. 0. 0. 0. 0. 0. 0.
      0. 0. 0. 0. 0. 0. 0. 0. 0. 0. 0. 0. 0. 0. 0. 0. 0. 0. 0. 0. 0. 0.
      0. 0. 0. 0. 0. 0. 0. 0. 0. 0. 0. 0. 0. 0. 0. 0. 0. 0. 0. 0. 0. 0.
      0. 0.</_>
    <_>
      0. 0. 0. 0. 0. 0. 0. 0. 0. 0. 0. 0. 0. 0. 0. 0. 0. 0. 0. 0. 0. 0.
      0. 0. 0. 0. 0. 0. 0. 0. 0. 0. 0. 0. 0. 0. 0. 0. 0. 0. 0. 0. 0. 0.
      0. 0. 0. 0. 0. 0. 0. 0. 0. 0. 0. 0. 0. 0. 0. 0. 0. 0. 0. 0. 20. 0.
      0. 0. 0. 0. 0. 0. 0. 0. 0. 0. 0. 0. 0. 0. 0. 0. 0. 0. 0. 0. 0. 0.
      0. 0. 0. 0. 0. 0. 0. 0. 0. 0. 0. 0. 0. 0. 0. 0. 0. 0. 0. 0. 0. 0.
      0. 0. 0. 0. 0. 0. 0. 0. 0. 0. 0. 0. 0. 0. 0. 0. 0. 0. 0. 0. 0. 0.
      0. 0. 22. 0. 0. 0. 0. 0. 0. 0. 0. 0. 0. 0. 0. 0. 0. 0. 0. 0. 0. 0.
      0. 0. 0. 0. 0. 0. 0. 0. 0. 0. 0. 0. 0. 0. 0. 0. 0. 0. 0. 0. 0. 0.
      0. 0. 0. 0. 0. 0. 0. 0. 0. 0. 0. 0. 0. 0. 0. 0. 0. 0. 0. 0. 0. 0.
      0. 0. 0. 0. 0. 0. 0. 0. 0. 0. 0. 0. 0. 0. 0. 0. 0. 0. 0. 0. 0. 0.
      0. 0. 0. 0. 0. 0. 0. 0. 0. 0. 0. 0. 0. 0. 0. 0. 0. 0. 0. 0. 0. 0.
      0. 0. 0. 0. 23. 0. 0. 0. 0. 0. 0. 0. 0. 0. 0. 0. 0. 0. 0. 0. 0. 0.
      0. 0. 0. 0. 0. 0. 0. 0. 0. 0. 0. 0. 0. 0. 0. 0. 0. 0. 0. 0. 0. 19.
      0. 0. 0. 0. 0. 0. 0. 0. 0. 0. 0. 0. 0. 0. 0. 0. 0. 0. 0. 0. 0. 0.
      0. 0. 0. 0. 0. 0. 0. 0. 0. 0. 0. 0. 0. 0. 13. 14. 0. 0. 0. 0. 0.
      0. 0. 0. 0. 0. 0. 0. 0. 0. 0. 0. 8. 0. 0. 0. 0. 0. 0. 0. 0. 0. 0.
      0. 0. 0. 0. 0. 0. 0. 0. 0. 0. 0. 0. 0. 0. 0. 0. 0. 0. 0. 0. 0. 0.
      0. 0. 0. 0. 0. 0. 0. 0. 0. 0. 0. 0. 0. 0. 0. 0. 0. 6. 0. 0. 8. 0.
      0. 0. 0. 0. 0. 0. 0. 0. 0. 0. 0. 0. 0. 0. 0. 0. 0. 0. 0. 0. 0. 0.
      0. 0. 0. 0. 0. 0. 0. 0. 0. 0. 0. 0. 0. 0. 0. 0. 0. 0. 0. 0. 0. 0.
      0. 0. 0. 0. 0. 0. 0. 0. 0. 0. 0. 0. 0. 0. 0. 0. 0. 0. 0. 0. 0. 0.
      0. 0. 0. 0. 0. 0. 0. 0. 0. 0. 0. 0. 0. 0. 0. 0. 0. 0. 0. 0. 0. 0.
      0. 0. 0. 0. 0. 0. 0. 0. 0. 0. 0. 0. 0. 0. 0. 0. 0. 0. 0. 0. 0. 0.
      0. 0. 0. 0. 0. 0. 0. 0. 0. 0. 0. 0. 0. 0. 0. 0. 0. 0. 0. 0. 0. 0.
      0. 0. 0. 0. 0. 0. 0. 0. 0. 0. 0. 0. 0. 0. 0. 0. 0. 0. 0. 0. 0. 0.
      0. 0. 0. 0. 0. 0. 0. 0. 0. 0. 0. 0. 0. 0. 0. 0. 0. 0. 0. 0. 0. 0.
      0. 0. 0. 0. 0. 0. 0. 0. 0. 0. 0. 0. 0. 0. 0. 0. 0. 0. 0. 0. 0. 0.
      0. 0. 0. 0. 0. 0. 0. 0. 0. 0. 0. 0. 0. 0. 0. 0. 0. 0. 0. 0. 0. 0.
      0. 0. 0. 0. 0. 0. 0. 0. 0. 0. 0. 0. 0. 0. 0. 0. 0. 0. 0. 0. 0. 0.
      0. 0. 0. 0. 0. 0. 0. 0. 0. 0. 0. 0. 0. 0. 0. 0. 0. 0. 0. 0. 0. 0.
      0. 0. 0. 0. 0. 0. 0. 0. 0. 0. 0. 0. 0. 0. 0. 0. 0. 0. 0. 0. 0. 0.
      0. 0. 0. 0. 0. 0. 0. 0. 0. 0. 0. 0. 0. 0. 0. 0. 0. 0. 0. 0. 0. 0.
      0. 0. 0. 0. 0. 0. 0. 0. 0. 0. 0. 0. 0. 0. 0. 0. 0.</_>
    <_>
      0. 0. 0. 0. 0. 0. 0. 0. 0. 0. 0. 0. 0. 0. 0. 0. 0. 0. 0. 0. 0. 0.
      0. 0. 0. 0. 0. 0. 0. 0. 0. 0. 0. 0. 0. 0. 0. 0. 0. 0. 0. 0. 0. 0.
      0. 0. 0. 0. 0. 0. 0. 0. 0. 0. 0. 0. 0. 0. 0. 0. 0. 0. 0. 0. 0. 0.
      0. 0. 0. 0. 0. 0. 0. 0. 0. 0. 0. 0. 0. 0. 0. 0. 0. 0. 0. 0. 0. 0.
      0. 0. 0. 0. 0. 0. 0. 0. 0. 0. 0. 0. 0. 0. 0. 0. 0. 0. 0. 0. 0. 0.
      0. 0. 0. 0. 0. 0. 0. 0. 0. 0. 0. 0. 0. 0. 0. 0. 0. 0. 0. 0. 0. 0.
      0. 0. 0. 0. 0. 0. 0. 0. 0. 0. 0. 0. 0. 0. 0. 0. 0. 0. 0. 0. 0. 0.
      0. 0. 0. 0. 0. 0. 0. 0. 0. 0. 0. 0. 0. 0. 0. 0. 0. 0. 0. 0. 0. 0.
      0. 0. 0. 0. 0. 0. 0. 0. 0. 0. 0. 0. 0. 0. 0. 0. 0. 0. 0. 0. 0. 0.
      0. 0. 0. 0. 0. 0. 0. 0. 0. 0. 0. 0. 0. 0. 0. 0. 0. 0. 0. 0. 0. 0.
      0. 0. 0. 0. 0. 0. 0. 0. 0. 0. 0. 0. 0. 0. 0. 0. 0. 0. 0. 0. 0. 0.
      0. 0. 0. 0. 0. 0. 0. 0. 0. 0. 0. 0. 0. 0. 0. 0. 0. 0. 0. 0. 0. 0.
      0. 0. 0. 0. 0. 0. 0. 0. 0. 0. 0. 0. 0. 0. 0. 0. 0. 0. 0. 0. 0. 0.
      0. 0. 0. 0. 0. 0. 0. 0. 0. 0. 0. 0. 0. 0. 0. 0. 0. 0. 0. 0. 0. 0.
      0. 0. 0. 0. 0. 0. 0. 0. 0. 0. 0. 0. 0. 0. 0. 0. 0. 0. 0. 0. 0. 0.
      0. 0. 0. 0. 0. 0. 0. 0. 0. 0. 0. 0. 0. 0. 0. 0. 0. 0. 0. 0. 0. 0.
      0. 0. 0. 0. 0. 0. 0. 0. 0. 0. 0. 0. 0. 0. 0. 0. 0. 0. 0. 0. 0. 0.
      0. 0. 0. 0. 0. 0. 0. 0. 0. 0. 0. 0. 0. 0. 0. 0. 0. 0. 0. 0. 0. 0.
      0. 0. 0. 0. 0. 0. 0. 0. 0. 0. 0. 0. 0. 0. 0. 0. 0. 0. 0. 0. 0. 0.
      0. 0. 0. 0. 0. 0. 0. 0. 0. 0. 0. 0. 0. 0. 0. 0. 0. 0. 0. 0. 0. 0.
      0. 0. 0. 0. 0. 0. 0. 0. 0. 0. 0. 0. 0. 0. 0. 0. 0. 0. 0. 0. 0. 0.
      0. 0. 0. 0. 0. 0. 0. 0. 0. 0. 0. 0. 0. 0. 0. 0. 0. 0. 0. 0. 0. 0.
      0. 0. 0. 0. 0. 0. 0. 0. 0. 0. 0. 0. 0. 0. 0. 0. 0. 0. 0. 0. 0. 0.
      0. 0. 0. 0. 0. 0. 0. 0. 0. 0. 0. 0. 0. 0. 0. 0. 0. 0. 0. 0. 0. 0.
      0. 0. 0. 0. 0. 0. 0. 0. 0. 0. 0. 0. 0. 0. 0. 0. 0. 0. 0. 0. 0. 0.
      0. 0. 0. 0. 0. 0. 0. 0. 0. 0. 0. 0. 0. 0. 0. 0. 0. 0. 0. 0. 0. 0.
      0. 0. 0. 0. 134. 0. 0. 131. 0. 0. 46. 85. 0. 0. 0. 0. 0. 0. 0. 0.
      0. 0. 0. 0. 0. 0. 97. 194. 0. 0. 270. 81. 150. 29. 0. 217. 61. 87.
      66. 83. 0. 0. 0. 0. 0. 0. 0. 0. 0. 0. 0. 0. 0. 41. 0. 0. 0. 0. 0.
      0. 0. 0. 0. 0. 0. 31. 0. 110. 0. 111. 111. 0. 101. 0. 0. 0. 0. 0.
      0. 0. 0. 0. 0. 0. 0. 0. 0. 0. 0. 0. 0. 0. 17. 0. 67. 0. 0. 0. 2.
      0. 0. 0. 0. 34. 0. 0. 0. 0. 0. 0. 0. 71. 0. 0. 0. 0. 0. 0. 0. 0.
      0. 0. 0. 0. 0. 0. 3. 0. 3. 0. 3. 0. 4. 0. 2. 0. 0. 0. 0. 0. 0. 0.
      0. 0. 0. 0. 0. 0.</_>
    <_>
      0. 0. 0. 0. 0. 0. 0. 0. 0. 0. 0. 0. 0. 0. 0. 0. 0. 0. 16. 8. 0. 0.
      0. 0. 0. 0. 0. 0. 0. 0. 0. 0. 0. 0. 0. 0. 0. 0. 0. 0. 0. 0. 0. 0.
      0. 0. 0. 0. 0. 0. 0. 0. 0. 6. 12. 0. 0. 0. 0. 0. 0. 0. 0. 0. 0. 0.
      0. 0. 0. 0. 0. 0. 0. 0. 0. 0. 0. 0. 0. 0. 0. 0. 0. 0. 0. 0. 0. 0.
